{"learner":{"attributes":{"scikit_learn":"{\"_estimator_type\": \"regressor\"}"},"feature_names":["pet","cloud_cover","maximum_temperature","minimum_temperature","vapour_pressure","diurnal_temperature_range","mean_temperature","precipitation","rain_days","ground_frost_frequency","gdd","hdd","cumulative_precipitation","soil_moisture_index","soil_temperature_index","uv_index"],"feature_types":["float","float","float","float","float","float","float","float","float","int","float","float","float","float","float","float"],"gradient_booster":{"model":{"gbtree_model_param":{"num_parallel_tree":"1","num_trees":"100"},"iteration_indptr":[0,1,2,3,4,5,6,7,8,9,10,11,12,13,14,15,16,17,18,19,20,21,22,23,24,25,26,27,28,29,30,31,32,33,34,35,36,37,38,39,40,41,42,43,44,45,46,47,48,49,50,51,52,53,54,55,56,57,58,59,60,61,62,63,64,65,66,67,68,69,70,71,72,73,74,75,76,77,78,79,80,81,82,83,84,85,86,87,88,89,90,91,92,93,94,95,96,97,98,99,100],"tree_info":[0,0,0,0,0,0,0,0,0,0,0,0,0,0,0,0,0,0,0,0,0,0,0,0,0,0,0,0,0,0,0,0,0,0,0,0,0,0,0,0,0,0,0,0,0,0,0,0,0,0,0,0,0,0,0,0,0,0,0,0,0,0,0,0,0,0,0,0,0,0,0,0,0,0,0,0,0,0,0,0,0,0,0,0,0,0,0,0,0,0,0,0,0,0,0,0,0,0,0,0],"trees":[{"base_weights":[6.5412946E-2,-2.848748E-1,6.550228E-1,-4.229046E-1,8.797958E-3,-4.3974025E-3,8.9542025E-1,-5.706855E-1,5.8343853E-3,1.7712628E-2,7.5469814E-2,-3.5734184E-2,-1.7753368E-2],"categories":[],"categories_nodes":[],"categories_segments":[],"categories_sizes":[],"default_left":[0,0,0,0,0,0,0,0,0,0,0,0,0],"id":0,"left_children":[1,3,5,7,-1,-1,9,11,-1,-1,-1,-1,-1],"loss_changes":[1.608965E1,3.1912463E0,5.2583904E0,3.096766E0,0E0,0E0,6.7751007E0,6.7769814E-1,0E0,0E0,0E0,0E0,0E0],"parents":[2147483647,0,0,1,1,2,2,3,3,6,6,7,7],"right_children":[2,4,6,8,-1,-1,10,12,-1,-1,-1,-1,-1],"split_conditions":[1.666E1,5.3E0,2.4E0,1.628E1,8.797958E-3,-4.3974025E-3,1.615E1,1.6E1,5.8343853E-3,1.7712628E-2,7.5469814E-2,-3.5734184E-2,-1.7753368E-2],"split_indices":[14,8,8,14,0,0,5,5,0,0,0,0,0],"split_type":[0,0,0,0,0,0,0,0,0,0,0,0,0],"sum_hessian":[7.6E1,4.8E1,2.8E1,3.7E1,1.1E1,7E0,2.1E1,2.9E1,8E0,1.2E1,9E0,1.6E1,1.3E1],"tree_param":{"num_deleted":"0","num_feature":"16","num_nodes":"13","size_leaf_vector":"1"}},{"base_weights":[-1.1374958E-1,-3.6565813E-1,7.820306E-1,1.7631575E-1,-5.344397E-1,1.8066939E-2,6.0507078E-2,-2.5390321E-2,4.1919924E-2,-6.3742447E-1,1.7208137E-3,-3.5049677E-2,-2.4449056E-2],"categories":[],"categories_nodes":[],"categories_segments":[],"categories_sizes":[],"default_left":[0,0,0,0,0,0,0,0,0,0,0,0,0],"id":1,"left_children":[1,3,5,7,9,-1,-1,-1,-1,11,-1,-1,-1],"loss_changes":[1.7435713E1,5.582741E0,2.6244774E0,7.2199254E0,2.7167797E0,0E0,0E0,0E0,0E0,2.5247574E-2,0E0,0E0,0E0],"parents":[2147483647,0,0,1,1,2,2,3,3,4,4,9,9],"right_children":[2,4,6,8,10,-1,-1,-1,-1,12,-1,-1,-1],"split_conditions":[1.38E1,5.72E1,6.3E0,1.595E1,5.5E0,1.8066939E-2,6.0507078E-2,-2.5390321E-2,4.1919924E-2,2.39E1,1.7208137E-3,-3.5049677E-2,-2.4449056E-2],"split_indices":[6,12,3,5,3,0,0,0,0,7,0,0,0],"split_type":[0,0,0,0,0,0,0,0,0,0,0,0,0],"sum_hessian":[7.5E1,5.9E1,1.6E1,1.4E1,4.5E1,9E0,7E0,7E0,7E0,3.8E1,7E0,2.4E1,1.4E1],"tree_param":{"num_deleted":"0","num_feature":"16","num_nodes":"13","size_leaf_vector":"1"}},{"base_weights":[1.17411185E-2,-3.8718486E-1,6.614078E-1,-5.999883E-1,5.5839424E-3,-3.8771112E-3,1.0351908E0,-1.9656967E-2,-3.333692E-2,1.9048396E-2,7.6023616E-2],"categories":[],"categories_nodes":[],"categories_segments":[],"categories_sizes":[],"default_left":[0,0,0,0,0,0,0,0,0,0,0],"id":2,"left_children":[1,3,5,7,-1,-1,9,-1,-1,-1,-1],"loss_changes":[1.8397911E1,4.738043E0,7.537859E0,1.6590118E-1,0E0,0E0,5.1354275E0,0E0,0E0,0E0,0E0],"parents":[2147483647,0,0,1,1,2,2,3,3,6,6],"right_children":[2,4,6,8,-1,-1,10,-1,-1,-1,-1],"split_conditions":[6.827309E-1,3.8E0,1.3E1,5.933852E-1,5.5839424E-3,-3.8771112E-3,1.44E1,-1.9656967E-2,-3.333692E-2,1.9048396E-2,7.6023616E-2],"split_indices":[15,10,6,15,0,0,7,0,0,0,0],"split_type":[0,0,0,0,0,0,0,0,0,0,0],"sum_hessian":[6.9E1,4.3E1,2.6E1,3E1,1.3E1,9E0,1.7E1,9E0,2.1E1,8E0,9E0],"tree_param":{"num_deleted":"0","num_feature":"16","num_nodes":"11","size_leaf_vector":"1"}},{"base_weights":[1.7705861E-2,-3.091163E-1,6.832393E-1,1.3741416E-2,-4.8673004E-1,1.1535034E-3,1.1658254E0,-2.9206498E-2,-1.01334695E-2,2.9703308E-2,7.959282E-2],"categories":[],"categories_nodes":[],"categories_segments":[],"categories_sizes":[],"default_left":[0,0,0,0,0,0,0,0,0,0,0],"id":3,"left_children":[1,3,5,-1,7,-1,9,-1,-1,-1,-1],"loss_changes":[1.7177063E1,5.6307454E0,8.256403E0,0E0,1.0159826E0,0E0,2.7081394E0,0E0,0E0,0E0,0E0],"parents":[2147483647,0,0,1,1,2,2,4,4,6,6],"right_children":[2,4,6,-1,8,-1,10,-1,-1,-1,-1],"split_conditions":[1.66E1,5.54E1,6.709129E-1,1.3741416E-2,8.3E0,1.1535034E-3,5.8833264E-2,-2.9206498E-2,-1.01334695E-2,2.9703308E-2,7.959282E-2],"split_indices":[14,12,15,0,4,0,13,0,0,0,0],"split_type":[0,0,0,0,0,0,0,0,0,0,0],"sum_hessian":[7.7E1,5.2E1,2.5E1,1.2E1,4E1,1.1E1,1.4E1,2.9E1,1.1E1,7E0,7E0],"tree_param":{"num_deleted":"0","num_feature":"16","num_nodes":"11","size_leaf_vector":"1"}},{"base_weights":[-7.981372E-2,-2.399479E-1,5.4056685E-2,-5.103005E-1,9.5023386E-2,-1.4599676E-2,-2.9671615E-2,-3.2471474E-2,3.2043105E-1,-7.6214494E-3,3.6831375E-2],"categories":[],"categories_nodes":[],"categories_segments":[],"categories_sizes":[],"default_left":[0,0,0,0,0,0,0,0,0,0,0],"id":4,"left_children":[1,3,-1,5,7,-1,-1,-1,9,-1,-1],"loss_changes":[1.5317914E1,6.5688367E0,0E0,5.5265236E-1,5.745675E0,0E0,0E0,0E0,5.2291517E0,0E0,0E0],"parents":[2147483647,0,0,1,1,3,3,4,4,8,8],"right_children":[2,4,-1,6,8,-1,-1,-1,10,-1,-1],"split_conditions":[2.22E1,1.3E1,5.4056685E-2,1.23E1,1.22E1,-1.4599676E-2,-2.9671615E-2,-3.2471474E-2,6.48E-1,-7.6214494E-3,3.6831375E-2],"split_indices":[2,6,0,6,7,0,0,0,15,0,0],"split_type":[0,0,0,0,0,0,0,0,0,0,0],"sum_hessian":[8E1,7.1E1,9E0,3.9E1,3.2E1,1.2E1,2.7E1,7E0,2.5E1,1.2E1,1.3E1],"tree_param":{"num_deleted":"0","num_feature":"16","num_nodes":"11","size_leaf_vector":"1"}},{"base_weights":[3.7786964E-2,-1.8388146E-1,8.251191E-1,-2.9005645E-2,-9.802952E-4,1.6462857E-2,5.8710266E-2,-4.090797E-1,3.877325E-1,-6.3397684E-3,-2.7566275E-2,-1.2308999E-2,4.4184092E-2],"categories":[],"categories_nodes":[],"categories_segments":[],"categories_sizes":[],"default_left":[0,0,0,0,0,0,0,0,0,0,0,0,0],"id":5,"left_children":[1,3,5,-1,7,-1,-1,9,11,-1,-1,-1,-1],"loss_changes":[1.2717645E1,4.130289E0,2.3829622E0,0E0,6.503952E0,0E0,0E0,7.3316956E-1,6.819702E0,0E0,0E0,0E0,0E0],"parents":[2147483647,0,0,1,1,2,2,4,4,7,7,8,8],"right_children":[2,4,6,-1,8,-1,-1,10,12,-1,-1,-1,-1],"split_conditions":[1.38E1,5.4854933E-2,1.67E1,-2.9005645E-2,3E0,1.6462857E-2,5.8710266E-2,1.23E1,1.58E1,-6.3397684E-3,-2.7566275E-2,-1.2308999E-2,4.4184092E-2],"split_indices":[6,13,5,0,10,0,0,6,5,0,0,0,0],"split_type":[0,0,0,0,0,0,0,0,0,0,0,0,0],"sum_hessian":[7.1E1,5.6E1,1.5E1,1.7E1,3.9E1,7E0,8E0,1.9E1,2E1,7E0,1.2E1,9E0,1.1E1],"tree_param":{"num_deleted":"0","num_feature":"16","num_nodes":"13","size_leaf_vector":"1"}},{"base_weights":[3.6298514E-3,-2.514125E-1,5.560704E-1,-4.7848976E-1,-5.9318105E-3,9.5838726E-2,6.562372E-2,-1.1096722E-2,-2.785937E-2,-2.556762E-2,2.0718905E-1,-2.6567224E-2,3.9472E-2,2.4611598E-2,-8.210885E-3],"categories":[],"categories_nodes":[],"categories_segments":[],"categories_sizes":[],"default_left":[0,0,0,0,0,0,0,0,0,0,0,0,0,0,0],"id":6,"left_children":[1,3,5,7,9,11,-1,-1,-1,-1,13,-1,-1,-1,-1],"loss_changes":[1.0706984E1,2.8958023E0,8.229119E0,4.2147875E-1,2.906554E0,7.3797054E0,0E0,0E0,0E0,0E0,2.0923035E0,0E0,0E0,0E0,0E0],"parents":[2147483647,0,0,1,1,2,2,3,3,4,4,5,5,10,10],"right_children":[2,4,6,8,10,12,-1,-1,-1,-1,14,-1,-1,-1,-1],"split_conditions":[7.1555555E-1,1.592E1,5.3E0,1.54E1,1.44E1,1.7E1,6.562372E-2,-1.1096722E-2,-2.785937E-2,-2.556762E-2,2.52E1,-2.6567224E-2,3.9472E-2,2.4611598E-2,-8.210885E-3],"split_indices":[15,14,3,5,7,7,0,0,0,0,1,0,0,0,0],"split_type":[0,0,0,0,0,0,0,0,0,0,0,0,0,0,0],"sum_hessian":[7.4E1,5.1E1,2.3E1,2.6E1,2.5E1,1.5E1,8E0,7E0,1.9E1,7E0,1.8E1,8E0,7E0,1E1,8E0],"tree_param":{"num_deleted":"0","num_feature":"16","num_nodes":"15","size_leaf_vector":"1"}},{"base_weights":[3.186552E-2,-1.699726E-1,5.1153947E-2,-3.5441333E-1,2.2456859E-1,-2.6456356E-2,7.779207E-3,-1.3538912E-2,3.0932177E-2],"categories":[],"categories_nodes":[],"categories_segments":[],"categories_sizes":[],"default_left":[0,0,0,0,0,0,0,0,0],"id":7,"left_children":[1,3,-1,5,7,-1,-1,-1,-1],"loss_changes":[1.5378807E1,4.7368355E0,0E0,4.0028825E0,4.2667947E0,0E0,0E0,0E0,0E0],"parents":[2147483647,0,0,1,1,3,3,4,4],"right_children":[2,4,-1,6,8,-1,-1,-1,-1],"split_conditions":[2.22E1,7.045952E-1,5.1153947E-2,3.21E1,1.7E1,-2.6456356E-2,7.779207E-3,-1.3538912E-2,3.0932177E-2],"split_indices":[2,15,0,7,7,0,0,0,0],"split_type":[0,0,0,0,0,0,0,0,0],"sum_hessian":[7.5E1,6.3E1,1.2E1,4.3E1,2E1,3.2E1,1.1E1,9E0,1.1E1],"tree_param":{"num_deleted":"0","num_feature":"16","num_nodes":"9","size_leaf_vector":"1"}},{"base_weights":[9.477048E-2,-2.0628253E-1,6.1217874E-1,-3.6040068E-1,9.5581666E-2,2.0054807E-3,8.2083005E-1,-2.3771858E-2,7.689662E-4,3.2420278E-2,-2.0321876E-2,5.948158E-2,8.251193E-3],"categories":[],"categories_nodes":[],"categories_segments":[],"categories_sizes":[],"default_left":[0,0,0,0,0,0,0,0,0,0,0,0,0],"id":8,"left_children":[1,3,5,7,9,-1,11,-1,-1,-1,-1,-1,-1],"loss_changes":[1.1029994E1,2.1279712E0,3.0705128E0,1.3041644E0,4.7039876E0,0E0,4.399068E0,0E0,0E0,0E0,0E0,0E0,0E0],"parents":[2147483647,0,0,1,1,2,2,3,3,4,4,6,6],"right_children":[2,4,6,8,10,-1,12,-1,-1,-1,-1,-1,-1],"split_conditions":[1.666E1,1.61E1,4.0476702E-2,5.5E0,1.65E1,2.0054807E-3,8.8E0,-2.3771858E-2,7.689662E-4,3.2420278E-2,-2.0321876E-2,5.948158E-2,8.251193E-3],"split_indices":[14,5,13,8,5,0,4,0,0,0,0,0,0],"split_type":[0,0,0,0,0,0,0,0,0,0,0,0,0],"sum_hessian":[6.9E1,4.4E1,2.5E1,2.9E1,1.5E1,7E0,1.8E1,2.2E1,7E0,7E0,8E0,1.1E1,7E0],"tree_param":{"num_deleted":"0","num_feature":"16","num_nodes":"13","size_leaf_vector":"1"}},{"base_weights":[-9.49593E-2,2.64934E-1,-2.9202878E-1,-1.2270087E-2,3.5994668E-2,-4.133639E-1,1.7557519E-2,-4.9019808E-1,-4.7123237E-3,-2.6723314E-2,-1.696807E-2],"categories":[],"categories_nodes":[],"categories_segments":[],"categories_sizes":[],"default_left":[0,0,0,0,0,0,0,0,0,0,0],"id":9,"left_children":[1,3,5,-1,-1,7,-1,9,-1,-1,-1],"loss_changes":[5.183896E0,6.213396E0,3.813043E0,0E0,0E0,9.3456507E-1,0E0,3.2295227E-2,0E0,0E0,0E0],"parents":[2147483647,0,0,1,1,2,2,5,5,7,7],"right_children":[2,4,6,-1,-1,8,-1,10,-1,-1,-1],"split_conditions":[2.33E1,5.0868027E-2,1.61E1,-1.2270087E-2,3.5994668E-2,3.21E1,1.7557519E-2,8.35E0,-4.7123237E-3,-2.6723314E-2,-1.696807E-2],"split_indices":[1,13,5,0,0,7,0,4,0,0,0],"split_type":[0,0,0,0,0,0,0,0,0,0,0],"sum_hessian":[7.1E1,2.5E1,4.6E1,1.2E1,1.3E1,3.9E1,7E0,3.1E1,8E0,2.2E1,9E0],"tree_param":{"num_deleted":"0","num_feature":"16","num_nodes":"11","size_leaf_vector":"1"}},{"base_weights":[5.0830424E-2,-2.2249915E-1,1.0678722E0,-3.4030792E-1,2.6344601E-2,3.248218E-2,6.7630835E-2,-1.032697E-1,-4.630073E-1,4.71961E-3,-1.3541922E-2,-3.0445283E-2,-3.5758883E-1,-2.1079836E-2,-1.0043824E-2],"categories":[],"categories_nodes":[],"categories_segments":[],"categories_sizes":[],"default_left":[0,0,0,0,0,0,0,0,0,0,0,0,0,0,0],"id":10,"left_children":[1,3,5,7,-1,-1,-1,9,11,-1,-1,-1,13,-1,-1],"loss_changes":[1.9696732E1,5.1232576E0,9.076061E-1,1.3773227E0,0E0,0E0,0E0,6.2176025E-1,2.744341E-1,0E0,0E0,0E0,1.2595844E-1,0E0,0E0],"parents":[2147483647,0,0,1,1,2,2,3,3,7,7,8,8,12,12],"right_children":[2,4,6,8,-1,-1,-1,10,12,-1,-1,-1,14,-1,-1],"split_conditions":[2.21E1,5.5E0,5.614211E-2,5E0,2.6344601E-2,3.248218E-2,6.7630835E-2,2.52E1,2.355E1,4.71961E-3,-1.3541922E-2,-3.0445283E-2,2.7E0,-2.1079836E-2,-1.0043824E-2],"split_indices":[2,10,13,11,0,0,0,1,1,0,0,0,10,0,0],"split_type":[0,0,0,0,0,0,0,0,0,0,0,0,0,0,0],"sum_hessian":[6.9E1,5.5E1,1.4E1,4.8E1,7E0,7E0,7E0,1.7E1,3.1E1,8E0,9E0,1.1E1,2E1,1.3E1,7E0],"tree_param":{"num_deleted":"0","num_feature":"16","num_nodes":"15","size_leaf_vector":"1"}},{"base_weights":[7.9657115E-2,-2.2394733E-1,6.213045E-1,-3.194938E-1,1.0464861E-2,3.4246433E-1,6.014489E-2,-1.5654588E-2,-4.6563497E-1,-9.477195E-3,4.216697E-2,-1.7379442E-2,1.5911823E-2,-2.5854904E-2,-1.6720686E-2],"categories":[],"categories_nodes":[],"categories_segments":[],"categories_sizes":[],"default_left":[0,0,0,0,0,0,0,0,0,0,0,0,0,0,0],"id":11,"left_children":[1,3,5,7,-1,9,-1,11,13,-1,-1,-1,-1,-1,-1],"loss_changes":[1.3294864E1,2.2194083E0,4.291027E0,1.9020581E0,0E0,5.755713E0,0E0,1.7730637E0,2.2913456E-2,0E0,0E0,0E0,0E0,0E0,0E0],"parents":[2147483647,0,0,1,1,2,2,3,3,5,5,7,7,8,8],"right_children":[2,4,6,8,-1,10,-1,12,14,-1,-1,-1,-1,-1,-1],"split_conditions":[1.34E1,5.5E0,1.62E1,5.9E1,1.0464861E-2,3.1111112E-1,6.014489E-2,1.75E1,2.74E1,-9.477195E-3,4.216697E-2,-1.7379442E-2,1.5911823E-2,-2.5854904E-2,-1.6720686E-2],"split_indices":[6,8,7,12,0,0,0,7,7,0,0,0,0,0,0],"split_type":[0,0,0,0,0,0,0,0,0,0,0,0,0,0,0],"sum_hessian":[7.9E1,5.1E1,2.8E1,4.2E1,9E0,2E1,8E0,1.4E1,2.8E1,1E1,1E1,7E0,7E0,1.8E1,1E1],"tree_param":{"num_deleted":"0","num_feature":"16","num_nodes":"15","size_leaf_vector":"1"}},{"base_weights":[-7.1080916E-2,-1.9132996E-1,4.093216E-2,1.6889489E-1,-3.1975275E-1,-1.2858586E-2,3.668123E-2,-4.104415E-1,6.445645E-3,-2.8268177E-2,-3.0917215E-1,-2.2608541E-2,1.3533188E-3],"categories":[],"categories_nodes":[],"categories_segments":[],"categories_sizes":[],"default_left":[0,0,0,0,0,0,0,0,0,0,0,0,0],"id":12,"left_children":[1,3,-1,5,7,-1,-1,9,-1,-1,11,-1,-1],"loss_changes":[8.073777E0,3.107236E0,0E0,4.519692E0,2.046668E0,0E0,0E0,4.6844864E-1,0E0,0E0,1.3104432E0,0E0,0E0],"parents":[2147483647,0,0,1,1,3,3,4,4,7,7,10,10],"right_children":[2,4,-1,6,8,-1,-1,10,-1,-1,12,-1,-1],"split_conditions":[2.22E1,5.79E1,4.093216E-2,1.7E1,3.9E1,-1.2858586E-2,3.668123E-2,3.3E0,6.445645E-3,-2.8268177E-2,1.3E1,-2.2608541E-2,1.3533188E-3],"split_indices":[2,12,0,7,7,0,0,8,0,0,6,0,0],"split_type":[0,0,0,0,0,0,0,0,0,0,0,0,0],"sum_hessian":[7.3E1,6.5E1,8E0,1.7E1,4.8E1,1E1,7E0,4E1,8E0,1.4E1,2.6E1,1.8E1,8E0],"tree_param":{"num_deleted":"0","num_feature":"16","num_nodes":"13","size_leaf_vector":"1"}},{"base_weights":[-2.3987947E-2,-2.3193675E-1,4.008303E-1,-3.2352686E-1,1.2589231E-2,1.3718009E-1,4.4179704E-2,3.8330082E-3,-3.992629E-1,2.473825E-2,-9.918217E-3,-1.1637631E-2,-4.671618E-1,-1.8795412E-2,-3.127469E-2],"categories":[],"categories_nodes":[],"categories_segments":[],"categories_sizes":[],"default_left":[0,0,0,0,0,0,0,0,0,0,0,0,0,0,0],"id":13,"left_children":[1,3,5,7,-1,9,-1,-1,11,-1,-1,-1,13,-1,-1],"loss_changes":[6.9835224E0,2.4295766E0,3.188088E0,1.3944936E0,0E0,2.257885E0,0E0,0E0,3.2088947E-1,0E0,0E0,0E0,1.4052963E-1,0E0,0E0],"parents":[2147483647,0,0,1,1,2,2,3,3,5,5,8,8,12,12],"right_children":[2,4,6,8,-1,10,-1,-1,12,-1,-1,-1,14,-1,-1],"split_conditions":[5.6E0,5.2E0,1.74E1,5.54E1,1.2589231E-2,5.8E0,4.4179704E-2,3.8330082E-3,6.27E1,2.473825E-2,-9.918217E-3,-1.1637631E-2,2.095E1,-1.8795412E-2,-3.127469E-2],"split_indices":[3,10,14,12,0,3,0,0,12,0,0,0,2,0,0],"split_type":[0,0,0,0,0,0,0,0,0,0,0,0,0,0,0],"sum_hessian":[7.7E1,5.2E1,2.5E1,4.4E1,8E0,1.7E1,8E0,7E0,3.7E1,8E0,9E0,1.2E1,2.5E1,1.8E1,7E0],"tree_param":{"num_deleted":"0","num_feature":"16","num_nodes":"15","size_leaf_vector":"1"}},{"base_weights":[-1.3583233E-2,-3.2769698E-1,4.6929085E-1,9.726917E-3,-4.526233E-1,-4.7280896E-3,8.980905E-1,-2.7839044E-2,-1.547935E-2,2.9940842E-2,5.61256E-2],"categories":[],"categories_nodes":[],"categories_segments":[],"categories_sizes":[],"default_left":[0,0,0,0,0,0,0,0,0,0,0],"id":14,"left_children":[1,3,5,-1,7,-1,9,-1,-1,-1,-1],"loss_changes":[1.0771202E1,2.8934126E0,6.8547597E0,0E0,3.4906912E-1,0E0,4.024353E-1,0E0,0E0,0E0,0E0],"parents":[2147483647,0,0,1,1,2,2,4,4,6,6],"right_children":[2,4,6,-1,8,-1,10,-1,-1,-1,-1],"split_conditions":[7.1555555E-1,5.933852E-1,4.85E0,9.726917E-3,6.76E1,-4.7280896E-3,2.7E0,-2.7839044E-2,-1.547935E-2,2.9940842E-2,5.61256E-2],"split_indices":[15,15,3,0,12,0,8,0,0,0,0],"split_type":[0,0,0,0,0,0,0,0,0,0,0],"sum_hessian":[6.9E1,4.2E1,2.7E1,8E0,3.4E1,1.2E1,1.5E1,1.8E1,1.6E1,8E0,7E0],"tree_param":{"num_deleted":"0","num_feature":"16","num_nodes":"11","size_leaf_vector":"1"}},{"base_weights":[5.651515E-2,-2.04239E-1,4.7032598E-1,7.841565E-3,-3.318902E-1,1.8271376E-1,4.6722677E-2,-3.9839852E-1,-3.6659513E-3,4.3870013E-2,-1.1365048E-2,-3.141112E-1,-2.8008385E-2,-1.9641979E-2,-6.361585E-3],"categories":[],"categories_nodes":[],"categories_segments":[],"categories_sizes":[],"default_left":[0,0,0,0,0,0,0,0,0,0,0,0,0,0,0],"id":15,"left_children":[1,3,5,-1,7,9,-1,11,-1,-1,-1,13,-1,-1,-1],"loss_changes":[8.944096E0,2.4026942E0,4.1009026E0,0E0,6.242814E-1,6.1808996E0,0E0,2.3309755E-1,0E0,0E0,0E0,2.7369785E-1,0E0,0E0,0E0],"parents":[2147483647,0,0,1,1,2,2,4,4,5,5,7,7,11,11],"right_children":[2,4,6,-1,8,10,-1,12,-1,-1,-1,14,-1,-1,-1],"split_conditions":[1.666E1,5.79E1,3.3E0,7.841565E-3,5E0,5.56E1,4.6722677E-2,2.11E1,-3.6659513E-3,4.3870013E-2,-1.1365048E-2,2.085E1,-2.8008385E-2,-1.9641979E-2,-6.361585E-3],"split_indices":[14,12,8,0,8,12,0,2,0,0,0,2,0,0,0],"split_type":[0,0,0,0,0,0,0,0,0,0,0,0,0,0,0],"sum_hessian":[8.1E1,5E1,3.1E1,1.3E1,3.7E1,2E1,1.1E1,2.9E1,8E0,7E0,1.3E1,2.1E1,8E0,1.4E1,7E0],"tree_param":{"num_deleted":"0","num_feature":"16","num_nodes":"15","size_leaf_vector":"1"}},{"base_weights":[-1.1058265E-2,-1.5964977E-1,6.0257286E-1,5.431759E-2,-2.6786795E-1,1.2957344E-2,4.2044397E-2,-1.8556237E-1,2.2404112E-2,-3.5586566E-1,8.630248E-3,-1.5309434E-3,-1.5865529E-2,-2.3328625E-2,-2.4929988E-1,-1.6806416E-2,-4.809052E-3],"categories":[],"categories_nodes":[],"categories_segments":[],"categories_sizes":[],"default_left":[0,0,0,0,0,0,0,0,0,0,0,0,0,0,0,0,0],"id":16,"left_children":[1,3,5,7,9,-1,-1,11,-1,13,-1,-1,-1,-1,15,-1,-1],"loss_changes":[7.4818115E0,1.5427904E0,1.0915837E0,2.255641E0,1.766891E0,0E0,0E0,2.964872E-1,0E0,3.201933E-1,0E0,0E0,0E0,0E0,2.4686718E-1,0E0,0E0],"parents":[2147483647,0,0,1,1,2,2,3,3,4,4,7,7,9,9,14,14],"right_children":[2,4,6,8,10,-1,-1,12,-1,14,-1,-1,-1,-1,16,-1,-1],"split_conditions":[2.17E1,6E1,1.645E1,1.61E1,3.9E1,1.2957344E-2,4.2044397E-2,1.53E1,2.2404112E-2,2.42E1,8.630248E-3,-1.5309434E-3,-1.5865529E-2,-2.3328625E-2,2.39E1,-1.6806416E-2,-4.809052E-3],"split_indices":[2,12,5,5,7,0,0,7,0,1,0,0,0,0,7,0,0],"split_type":[0,0,0,0,0,0,0,0,0,0,0,0,0,0,0,0,0],"sum_hessian":[8E1,6.5E1,1.5E1,2.2E1,4.3E1,7E0,8E0,1.4E1,8E0,3.6E1,7E0,7E0,7E0,1.6E1,2E1,1.2E1,8E0],"tree_param":{"num_deleted":"0","num_feature":"16","num_nodes":"17","size_leaf_vector":"1"}},{"base_weights":[-3.729589E-2,-3.2271934E-1,2.2119102E-1,-3.8062721E-1,-3.261244E-3,-1.8247303E-2,3.9744663E-1,-3.21664E-1,-2.51284E-2,1.1044002E-1,6.223307E-2,-1.941727E-2,-1.1408867E-2,-1.1723692E-1,3.044541E-2,8.374218E-3,-2.4703704E-2],"categories":[],"categories_nodes":[],"categories_segments":[],"categories_sizes":[],"default_left":[0,0,0,0,0,0,0,0,0,0,0,0,0,0,0,0,0],"id":17,"left_children":[1,3,5,7,-1,-1,9,11,-1,13,-1,-1,-1,15,-1,-1,-1],"loss_changes":[5.7523055E0,5.2687883E-1,4.3807545E0,5.404234E-2,0E0,0E0,7.64354E0,5.476594E-2,0E0,2.9086292E0,0E0,0E0,0E0,2.0140336E0,0E0,0E0,0E0],"parents":[2147483647,0,0,1,1,2,2,3,3,6,6,7,7,9,9,13,13],"right_children":[2,4,6,8,-1,-1,10,12,-1,14,-1,-1,-1,16,-1,-1,-1],"split_conditions":[4.9E0,4.7E0,5.0704967E-2,1.64E1,-3.261244E-3,-1.8247303E-2,1.615E1,8E0,-2.51284E-2,4.3E0,6.223307E-2,-1.941727E-2,-1.1408867E-2,1.585E1,3.044541E-2,8.374218E-3,-2.4703704E-2],"split_indices":[3,10,13,5,0,0,5,4,0,10,0,0,0,5,0,0,0],"split_type":[0,0,0,0,0,0,0,0,0,0,0,0,0,0,0,0,0],"sum_hessian":[7.6E1,3.6E1,4E1,2.9E1,7E0,9E0,3.1E1,2.2E1,7E0,2.4E1,7E0,1.1E1,1.1E1,1.7E1,7E0,1E1,7E0],"tree_param":{"num_deleted":"0","num_feature":"16","num_nodes":"17","size_leaf_vector":"1"}},{"base_weights":[7.1919285E-4,-1.2479823E-1,4.605502E-2,-2.9261073E-1,1.2843506E-1,-3.9207825E-1,-1.7353934E-1,-1.6795425E-2,3.7926844E-1,-1.4121507E-2,-2.6747629E-2,-1.8312192E-2,8.064891E-3,3.471064E-2,5.7869535E-3],"categories":[],"categories_nodes":[],"categories_segments":[],"categories_sizes":[],"default_left":[0,0,0,0,0,0,0,0,0,0,0,0,0,0,0],"id":18,"left_children":[1,3,-1,5,7,9,11,-1,13,-1,-1,-1,-1,-1,-1],"loss_changes":[8.663718E0,2.842299E0,0E0,4.0570807E-1,3.272167E0,1.7789721E-1,1.3495667E0,0E0,1.4136E0,0E0,0E0,0E0,0E0,0E0,0E0],"parents":[2147483647,0,0,1,1,3,3,4,4,5,5,6,6,8,8],"right_children":[2,4,-1,6,8,10,12,-1,14,-1,-1,-1,-1,-1,-1],"split_conditions":[2.22E1,8.35E0,4.605502E-2,4.7E0,3.3E0,4.1E0,1.76E1,-1.6795425E-2,2.46E1,-1.4121507E-2,-2.6747629E-2,-1.8312192E-2,8.064891E-3,3.471064E-2,5.7869535E-3],"split_indices":[2,4,0,3,8,10,7,0,1,0,0,0,0,0,0],"split_type":[0,0,0,0,0,0,0,0,0,0,0,0,0,0,0],"sum_hessian":[7.3E1,6.5E1,8E0,3.9E1,2.6E1,2E1,1.9E1,9E0,1.7E1,1.3E1,7E0,1.2E1,7E0,7E0,1E1],"tree_param":{"num_deleted":"0","num_feature":"16","num_nodes":"15","size_leaf_vector":"1"}},{"base_weights":[-2.577844E-2,-1.5221615E-1,3.5696156E-2,-2.2996339E-1,1.4284874E-2,-3.0381126E-2,-3.28995E-1,2.6674164E-2,-2.0920588E-2,-3.9699325E-1,-2.5334188E-3,-9.739835E-3,-4.6764424E-1,-1.5700229E-2,-2.8083721E-2],"categories":[],"categories_nodes":[],"categories_segments":[],"categories_sizes":[],"default_left":[0,0,0,0,0,0,0,0,0,0,0,0,0,0,0],"id":19,"left_children":[1,3,-1,5,-1,7,9,-1,-1,11,-1,-1,13,-1,-1],"loss_changes":[7.6842904E0,2.4489603E0,0E0,1.1759021E0,0E0,4.8179455E0,7.3691416E-1,0E0,0E0,3.6603642E-1,0E0,0E0,1.5590763E-1,0E0,0E0],"parents":[2147483647,0,0,1,1,3,3,5,5,6,6,9,9,12,12],"right_children":[2,4,-1,6,-1,8,10,-1,-1,12,-1,-1,14,-1,-1],"split_conditions":[2.21E1,3.21E1,3.5696156E-2,2.26E1,1.4284874E-2,1.65E1,1.61E1,2.6674164E-2,-2.0920588E-2,1.54E1,-2.5334188E-3,-9.739835E-3,2.8E0,-1.5700229E-2,-2.8083721E-2],"split_indices":[2,7,0,1,0,5,5,0,0,7,0,0,10,0,0],"split_type":[0,0,0,0,0,0,0,0,0,0,0,0,0,0,0],"sum_hessian":[8E1,6.9E1,1.1E1,5.9E1,1E1,2E1,3.9E1,8E0,1.2E1,3.1E1,8E0,9E0,2.2E1,1E1,1.2E1],"tree_param":{"num_deleted":"0","num_feature":"16","num_nodes":"15","size_leaf_vector":"1"}},{"base_weights":[-1.0014482E-1,-2.6508817E-1,2.0187376E-1,1.9970287E-3,-3.8289154E-1,-1.3091777E-1,4.2251322E-2,-2.5873268E-2,-2.9603165E-1,5.2086413E-3,-1.4499557E-2,-9.946063E-3,-1.6728124E-2],"categories":[],"categories_nodes":[],"categories_segments":[],"categories_sizes":[],"default_left":[0,0,0,0,0,0,0,0,0,0,0,0,0],"id":20,"left_children":[1,3,5,-1,7,9,-1,-1,11,-1,-1,-1,-1],"loss_changes":[3.6402636E0,1.7041636E0,5.6755586E0,0E0,2.4424171E-1,7.0334893E-1,0E0,0E0,1.95086E-2,0E0,0E0,0E0,0E0],"parents":[2147483647,0,0,1,1,2,2,4,4,5,5,8,8],"right_children":[2,4,6,-1,8,10,-1,-1,12,-1,-1,-1,-1],"split_conditions":[8.35E0,5.79E1,4.3E0,1.9970287E-3,2.36E1,2.47E1,4.2251322E-2,-2.5873268E-2,5.978313E-2,5.2086413E-3,-1.4499557E-2,-9.946063E-3,-1.6728124E-2],"split_indices":[4,12,10,0,1,1,0,0,13,0,0,0,0],"split_type":[0,0,0,0,0,0,0,0,0,0,0,0,0],"sum_hessian":[7.1E1,4.6E1,2.5E1,1.3E1,3.3E1,1.7E1,8E0,1.1E1,2.2E1,7E0,1E1,8E0,1.4E1],"tree_param":{"num_deleted":"0","num_feature":"16","num_nodes":"13","size_leaf_vector":"1"}},{"base_weights":[5.34856E-2,-9.1269396E-2,3.7638046E-2,-3.3487988E-1,7.732482E-2,-4.144563E-1,-4.2065904E-3,4.2376786E-1,-2.4113818E-1,-1.6247876E-2,-2.5963604E-2,4.038081E-3,4.6409104E-2,3.1401967E-3,-3.8716474E-1,-2.3500215E-2,-1.2796481E-2],"categories":[],"categories_nodes":[],"categories_segments":[],"categories_sizes":[],"default_left":[0,0,0,0,0,0,0,0,0,0,0,0,0,0,0,0,0],"id":21,"left_children":[1,3,-1,5,7,9,-1,11,13,-1,-1,-1,-1,-1,15,-1,-1],"loss_changes":[8.267816E0,2.8187444E0,0E0,5.2383304E-1,4.6256876E0,2.8257132E-2,0E0,3.385383E0,1.0007553E0,0E0,0E0,0E0,0E0,0E0,4.2783976E-2,0E0,0E0],"parents":[2147483647,0,0,1,1,3,3,4,4,5,5,7,7,8,8,14,14],"right_children":[2,4,-1,6,8,10,-1,12,14,-1,-1,-1,-1,-1,16,-1,-1],"split_conditions":[2.21E1,8.2E0,3.7638046E-2,1.11E1,2.46E1,2.095E1,-4.2065904E-3,6.5786935E-2,1.525E1,-1.6247876E-2,-2.5963604E-2,4.038081E-3,4.6409104E-2,3.1401967E-3,4.8E0,-2.3500215E-2,-1.2796481E-2],"split_indices":[2,4,0,11,1,2,0,13,5,0,0,0,0,0,11,0,0],"split_type":[0,0,0,0,0,0,0,0,0,0,0,0,0,0,0,0,0],"sum_hessian":[8E1,6.7E1,1.3E1,2.7E1,4E1,2E1,7E0,1.9E1,2.1E1,1.3E1,7E0,1.2E1,7E0,7E0,1.4E1,7E0,7E0],"tree_param":{"num_deleted":"0","num_feature":"16","num_nodes":"17","size_leaf_vector":"1"}},{"base_weights":[-3.726785E-2,-2.483587E-1,2.3546566E-1,-3.3753166E-1,8.62208E-4,-1.7458273E-2,7.6542366E-1,-1.26656145E-2,-2.5294429E-2,2.109131E-2,5.0667156E-2],"categories":[],"categories_nodes":[],"categories_segments":[],"categories_sizes":[],"default_left":[0,0,0,0,0,0,0,0,0,0,0],"id":22,"left_children":[1,3,5,7,-1,-1,9,-1,-1,-1,-1],"loss_changes":[3.685487E0,8.584657E-1,8.942497E0,2.5468278E-1,0E0,0E0,8.5031223E-1,0E0,0E0,0E0,0E0],"parents":[2147483647,0,0,1,1,2,2,3,3,6,6],"right_children":[2,4,6,8,-1,-1,10,-1,-1,-1,-1],"split_conditions":[6.827309E-1,3.9E0,5.5104967E-2,5.3E0,8.62208E-4,-1.7458273E-2,2.2E1,-1.26656145E-2,-2.5294429E-2,2.109131E-2,5.0667156E-2],"split_indices":[15,10,13,3,0,0,1,0,0,0,0],"split_type":[0,0,0,0,0,0,0,0,0,0,0],"sum_hessian":[6.2E1,3.5E1,2.7E1,2.6E1,9E0,1.3E1,1.4E1,1.9E1,7E0,7E0,7E0],"tree_param":{"num_deleted":"0","num_feature":"16","num_nodes":"11","size_leaf_vector":"1"}},{"base_weights":[2.2804169E-2,-1.425762E-1,3.976321E-1,-1.817151E-2,-6.326889E-2,1.224855E-1,4.31914E-2,-1.9552904E-1,1.6330624E-2,-6.8976926E-3,1.8380709E-2,-1.5439148E-2,7.0180185E-3],"categories":[],"categories_nodes":[],"categories_segments":[],"categories_sizes":[],"default_left":[0,0,0,0,0,0,0,0,0,0,0,0,0],"id":23,"left_children":[1,3,5,-1,7,9,-1,11,-1,-1,-1,-1,-1],"loss_changes":[4.4579253E0,8.527731E-1,2.7161818E0,0E0,2.0233614E0,1.0083312E0,0E0,1.1465241E0,0E0,0E0,0E0,0E0,0E0],"parents":[2147483647,0,0,1,1,2,2,4,4,5,5,7,7],"right_children":[2,4,6,-1,8,10,-1,12,-1,-1,-1,-1,-1],"split_conditions":[2.17E1,5.0704967E-2,1.53E1,-1.817151E-2,6.9716775E-1,1.645E1,4.31914E-2,3.6E0,1.6330624E-2,-6.8976926E-3,1.8380709E-2,-1.5439148E-2,7.0180185E-3],"split_indices":[2,13,7,0,15,5,0,10,0,0,0,0,0],"split_type":[0,0,0,0,0,0,0,0,0,0,0,0,0],"sum_hessian":[7E1,4.9E1,2.1E1,1.2E1,3.7E1,1.4E1,7E0,2.8E1,9E0,7E0,7E0,2.1E1,7E0],"tree_param":{"num_deleted":"0","num_feature":"16","num_nodes":"13","size_leaf_vector":"1"}},{"base_weights":[-1.7295888E-2,-1.536265E-1,3.066264E-2,-2.11195E-2,-5.4652225E-2,1.9402829E-1,-2.8033218E-1,-5.928744E-3,1.9056415E-2,-5.804965E-3,-1.7056406E-2],"categories":[],"categories_nodes":[],"categories_segments":[],"categories_sizes":[],"default_left":[0,0,0,0,0,0,0,0,0,0,0],"id":24,"left_children":[1,3,-1,-1,5,7,9,-1,-1,-1,-1],"loss_changes":[6.2835546E0,1.572956E0,0E0,0E0,2.5798917E0,1.3319294E0,2.0002782E-1,0E0,0E0,0E0,0E0],"parents":[2147483647,0,0,1,1,4,4,5,5,6,6],"right_children":[2,4,-1,-1,6,8,10,-1,-1,-1,-1],"split_conditions":[1.714E1,5.5104967E-2,3.066264E-2,-2.11195E-2,7.97E1,6.2450594E-1,5.1E0,-5.928744E-3,1.9056415E-2,-5.804965E-3,-1.7056406E-2],"split_indices":[14,13,0,0,12,15,11,0,0,0,0],"split_type":[0,0,0,0,0,0,0,0,0,0,0],"sum_hessian":[7.1E1,5.9E1,1.2E1,1.5E1,4.4E1,2.1E1,2.3E1,8E0,1.3E1,7E0,1.6E1],"tree_param":{"num_deleted":"0","num_feature":"16","num_nodes":"11","size_leaf_vector":"1"}},{"base_weights":[5.6153238E-2,-1.7497097E-1,4.1637605E-1,-1.480357E-2,-2.4958684E-1,4.6136707E-2,1.1706032E-1,-1.1049796E-2,1.0950664E-2,-3.3562756E-1,-3.910834E-3,1.6251346E-2,-4.1321046E-3,-1.0574301E-2,-2.3882559E-2],"categories":[],"categories_nodes":[],"categories_segments":[],"categories_sizes":[],"default_left":[0,0,0,0,0,0,0,0,0,0,0,0,0,0,0],"id":25,"left_children":[1,3,5,7,9,-1,11,-1,-1,13,-1,-1,-1,-1,-1],"loss_changes":[6.4003263E0,5.5800354E-1,4.4388123E0,8.1978095E-1,4.4558227E-1,0E0,8.574896E-1,0E0,0E0,2.692349E-1,0E0,0E0,0E0,0E0,0E0],"parents":[2147483647,0,0,1,1,2,2,3,3,4,4,6,6,9,9],"right_children":[2,4,6,8,10,-1,12,-1,-1,14,-1,-1,-1,-1,-1],"split_conditions":[8.35E0,4.45E0,5.7E0,7.8E0,8.25E0,4.6136707E-2,1.56E1,-1.1049796E-2,1.0950664E-2,2.9E0,-3.910834E-3,1.6251346E-2,-4.1321046E-3,-1.0574301E-2,-2.3882559E-2],"split_indices":[4,3,3,4,4,0,5,0,0,10,0,0,0,0,0],"split_type":[0,0,0,0,0,0,0,0,0,0,0,0,0,0,0],"sum_hessian":[7.5E1,4.6E1,2.9E1,1.5E1,3.1E1,1E1,1.9E1,8E0,7E0,2E1,1.1E1,9E0,1E1,1.2E1,8E0],"tree_param":{"num_deleted":"0","num_feature":"16","num_nodes":"15","size_leaf_vector":"1"}},{"base_weights":[4.0305134E-2,-1.2942626E-1,4.7051662E-1,-2.051239E-1,1.7520007E-2,-2.7401582E-4,4.338187E-2,-1.0550227E-1,-3.4430015E-1,-2.4046053E-1,9.423016E-3,-1.09187225E-2,-2.5294596E-2,-1.601466E-2,-6.9383904E-3],"categories":[],"categories_nodes":[],"categories_segments":[],"categories_sizes":[],"default_left":[0,0,0,0,0,0,0,0,0,0,0,0,0,0,0],"id":26,"left_children":[1,3,5,7,-1,-1,-1,9,11,13,-1,-1,-1,-1,-1],"loss_changes":[5.683467E0,2.1058922E0,4.163377E0,6.43059E-1,0E0,0E0,0E0,1.2354975E0,2.9649687E-1,1.260401E-1,0E0,0E0,0E0,0E0,0E0],"parents":[2147483647,0,0,1,1,2,2,3,3,7,7,8,8,9,9],"right_children":[2,4,6,8,-1,-1,-1,10,12,14,-1,-1,-1,-1,-1],"split_conditions":[1.615E1,5.5E0,5.2490205E-2,1.585E1,1.7520007E-2,-2.7401582E-4,4.338187E-2,2.11E1,5.3E0,1.0488184E-1,9.423016E-3,-1.09187225E-2,-2.5294596E-2,-1.601466E-2,-6.9383904E-3],"split_indices":[5,10,13,5,0,0,0,2,3,13,0,0,0,0,0],"split_type":[0,0,0,0,0,0,0,0,0,0,0,0,0,0,0],"sum_hessian":[7.6E1,5.5E1,2.1E1,4.8E1,7E0,1E1,1.1E1,2.9E1,1.9E1,2E1,9E0,1.2E1,7E0,1E1,1E1],"tree_param":{"num_deleted":"0","num_feature":"16","num_nodes":"15","size_leaf_vector":"1"}},{"base_weights":[4.607286E-3,-2.371086E-1,1.9367608E-1,-8.443538E-2,-3.304263E-1,-1.0004076E-2,3.385341E-1,-1.1522922E-2,3.6071048E-3,-1.9689362E-2,-8.516065E-3,-3.6867574E-2,7.6316524E-1,9.800553E-3,-1.5870033E-2,2.1301314E-2,4.8902404E-2],"categories":[],"categories_nodes":[],"categories_segments":[],"categories_sizes":[],"default_left":[0,0,0,0,0,0,0,0,0,0,0,0,0,0,0,0,0],"id":27,"left_children":[1,3,5,7,9,-1,11,-1,-1,-1,-1,13,15,-1,-1,-1,-1],"loss_changes":[3.7476978E0,4.8499632E-1,2.691526E0,3.595846E-1,1.5610671E-1,0E0,5.447982E0,0E0,0E0,0E0,0E0,1.3034871E0,7.424526E-1,0E0,0E0,0E0,0E0],"parents":[2147483647,0,0,1,1,2,2,3,3,4,4,6,6,11,11,12,12],"right_children":[2,4,6,8,10,-1,12,-1,-1,-1,-1,14,16,-1,-1,-1,-1],"split_conditions":[4.85E0,1.23E1,5.3717595E-2,5.4854933E-2,4.8E0,-1.0004076E-2,6.48E-1,-1.1522922E-2,3.6071048E-3,-1.9689362E-2,-8.516065E-3,5.964912E-1,6.873088E-2,9.800553E-3,-1.5870033E-2,2.1301314E-2,4.8902404E-2],"split_indices":[3,6,13,13,3,0,15,0,0,0,0,15,13,0,0,0,0],"split_type":[0,0,0,0,0,0,0,0,0,0,0,0,0,0,0,0,0],"sum_hessian":[8E1,3.5E1,4.5E1,1.4E1,2.1E1,1.2E1,3.3E1,7E0,7E0,1.4E1,7E0,1.8E1,1.5E1,1E1,8E0,7E0,8E0],"tree_param":{"num_deleted":"0","num_feature":"16","num_nodes":"17","size_leaf_vector":"1"}},{"base_weights":[-4.683561E-2,-2.64586E-1,1.784744E-1,-2.5919059E-3,-3.3358204E-1,-7.388299E-2,3.6789447E-2,-1.1934182E-2,-1.9679427E-2,-2.3654455E-1,1.5067044E-2,-2.177607E-2,-1.6905451E-3],"categories":[],"categories_nodes":[],"categories_segments":[],"categories_sizes":[],"default_left":[0,0,0,0,0,0,0,0,0,0,0,0,0],"id":28,"left_children":[1,3,5,-1,7,9,-1,-1,-1,11,-1,-1,-1],"loss_changes":[3.481516E0,5.1114297E-1,4.9768476E0,0E0,5.9809208E-2,1.5971429E0,0E0,0E0,0E0,7.1138227E-1,0E0,0E0,0E0],"parents":[2147483647,0,0,1,1,2,2,4,4,5,5,9,9],"right_children":[2,4,6,-1,8,10,-1,-1,-1,12,-1,-1,-1],"split_conditions":[1.628E1,5.9E1,7.072855E-2,-2.5919059E-3,2.8E0,4.2E0,3.6789447E-2,-1.1934182E-2,-1.9679427E-2,2.5E0,1.5067044E-2,-2.177607E-2,-1.6905451E-3],"split_indices":[14,12,13,0,10,10,0,0,0,8,0,0,0],"split_type":[0,0,0,0,0,0,0,0,0,0,0,0,0],"sum_hessian":[6.9E1,3.5E1,3.4E1,9E0,2.6E1,2.4E1,1E1,1.2E1,1.4E1,1.7E1,7E0,8E0,9E0],"tree_param":{"num_deleted":"0","num_feature":"16","num_nodes":"13","size_leaf_vector":"1"}},{"base_weights":[8.5572805E-3,-7.772751E-2,3.5373602E-2,1.8378247E-1,-1.8687159E-1,-1.8133793E-2,4.6297476E-1,-2.6451916E-1,1.3662743E-2,8.296773E-3,3.510711E-2,-1.8781233E-1,-2.4226954E-2,-9.160267E-2,-1.421465E-2,-8.954396E-3,2.5537764E-3],"categories":[],"categories_nodes":[],"categories_segments":[],"categories_sizes":[],"default_left":[0,0,0,0,0,0,0,0,0,0,0,0,0,0,0,0,0],"id":29,"left_children":[1,3,-1,5,7,-1,9,11,-1,-1,-1,13,-1,15,-1,-1,-1],"loss_changes":[4.9397526E0,2.1179292E0,0E0,3.524382E0,1.9301214E0,0E0,9.491215E-1,6.6846395E-1,0E0,0E0,0E0,2.98841E-1,0E0,2.4630952E-1,0E0,0E0,0E0],"parents":[2147483647,0,0,1,1,3,3,4,4,6,6,7,7,11,11,13,13],"right_children":[2,4,-1,6,8,-1,10,12,-1,-1,-1,14,-1,16,-1,-1,-1],"split_conditions":[2.22E1,5.79E1,3.5373602E-2,5.5104967E-2,6E0,-1.8133793E-2,6.831007E-2,2.888889E-1,1.3662743E-2,8.296773E-3,3.510711E-2,8.05E1,-2.4226954E-2,2.095E1,-1.421465E-2,-8.954396E-3,2.5537764E-3],"split_indices":[2,12,0,13,8,0,13,0,0,0,0,12,0,2,0,0,0],"split_type":[0,0,0,0,0,0,0,0,0,0,0,0,0,0,0,0,0],"sum_hessian":[8E1,7.2E1,8E0,2.1E1,5.1E1,7E0,1.4E1,4.4E1,7E0,7E0,7E0,3.4E1,1E1,1.8E1,1.6E1,1.1E1,7E0],"tree_param":{"num_deleted":"0","num_feature":"16","num_nodes":"17","size_leaf_vector":"1"}},{"base_weights":[4.2818476E-2,-1.2827939E-1,2.953244E-1,-1.9999866E-1,4.5795892E-3,-1.8726464E-2,5.4460084E-1,4.3270644E-4,-2.5247094E-1,1.2446994E-2,4.520331E-2,-1.5219326E-1,-1.8674588E-2,-1.090087E-2,-2.544447E-3],"categories":[],"categories_nodes":[],"categories_segments":[],"categories_sizes":[],"default_left":[0,0,0,0,0,0,0,0,0,0,0,0,0,0,0],"id":30,"left_children":[1,3,5,7,-1,-1,9,-1,11,-1,-1,13,-1,-1,-1],"loss_changes":[3.321329E0,7.436923E-1,5.38031E0,3.8538194E-1,0E0,0E0,2.219379E0,0E0,2.8295636E-1,0E0,0E0,1.02265924E-1,0E0,0E0,0E0],"parents":[2147483647,0,0,1,1,2,2,3,3,6,6,8,8,11,11],"right_children":[2,4,6,8,-1,-1,10,-1,12,-1,-1,14,-1,-1,-1],"split_conditions":[1.628E1,7.1555555E-1,5.0704967E-2,5.964912E-1,4.5795892E-3,-1.8726464E-2,1.615E1,4.3270644E-4,4.6E0,1.2446994E-2,4.520331E-2,7.49E1,-1.8674588E-2,-1.090087E-2,-2.544447E-3],"split_indices":[14,15,13,15,0,0,5,0,8,0,0,12,0,0,0],"split_type":[0,0,0,0,0,0,0,0,0,0,0,0,0,0,0],"sum_hessian":[7.5E1,4.5E1,3E1,3.4E1,1.1E1,8E0,2.2E1,7E0,2.7E1,1.3E1,9E0,1.6E1,1.1E1,9E0,7E0],"tree_param":{"num_deleted":"0","num_feature":"16","num_nodes":"15","size_leaf_vector":"1"}},{"base_weights":[-2.55762E-2,-9.256029E-2,2.6093328E-2,-2.130633E-1,8.492778E-2,-2.6931056E-1,1.9279342E-3,2.8210072E-2,-1.8605354E-1,-4.87009E-3,-3.4302357E-1,-3.3529226E-3,-1.6320756E-2,-2.6862029E-2,-8.361972E-3],"categories":[],"categories_nodes":[],"categories_segments":[],"categories_sizes":[],"default_left":[0,0,0,0,0,0,0,0,0,0,0,0,0,0,0],"id":31,"left_children":[1,3,-1,5,7,9,-1,-1,11,-1,13,-1,-1,-1,-1],"loss_changes":[2.6885407E0,1.4083049E0,0E0,5.6235325E-1,3.6115751E0,3.7208986E-1,0E0,0E0,2.7875316E-1,0E0,6.6123843E-1,0E0,0E0,0E0,0E0],"parents":[2147483647,0,0,1,1,3,3,4,4,5,5,8,8,10,10],"right_children":[2,4,-1,6,8,10,-1,-1,12,-1,14,-1,-1,-1,-1],"split_conditions":[6.4E0,7.1014464E-2,2.6093328E-2,4.7E0,8.2995445E-2,2.11E1,1.9279342E-3,2.8210072E-2,9.86E1,-4.87009E-3,8.35E0,-3.3529226E-3,-1.6320756E-2,-2.6862029E-2,-8.361972E-3],"split_indices":[3,13,0,8,13,2,0,0,12,0,4,0,0,0,0],"split_type":[0,0,0,0,0,0,0,0,0,0,0,0,0,0,0],"sum_hessian":[7.1E1,6.4E1,7E0,3.8E1,2.6E1,3.1E1,7E0,9E0,1.7E1,1E1,2.1E1,1E1,7E0,9E0,1.2E1],"tree_param":{"num_deleted":"0","num_feature":"16","num_nodes":"15","size_leaf_vector":"1"}},{"base_weights":[-4.935954E-2,-1.6686802E-1,1.0641281E-1,-3.3257806E-1,-4.0882044E-2,2.624454E-1,-8.792047E-2,-2.3957586E-2,-9.7872345E-3,9.044399E-2,-1.2345775E-2,-2.089958E-3,2.2992775E-2,1.0870412E-2,-1.9112958E-2,-9.677812E-3,1.993194E-2],"categories":[],"categories_nodes":[],"categories_segments":[],"categories_sizes":[],"default_left":[0,0,0,0,0,0,0,0,0,0,0,0,0,0,0,0,0],"id":32,"left_children":[1,3,5,7,9,11,13,-1,-1,15,-1,-1,-1,-1,-1,-1,-1],"loss_changes":[1.3539906E0,8.6324334E-1,9.9338865E-1,2.6721966E-1,6.98771E-1,1.1003186E0,1.4311569E0,0E0,0E0,1.4775972E0,0E0,0E0,0E0,0E0,0E0,0E0,0E0],"parents":[2147483647,0,0,1,1,2,2,3,3,4,4,5,5,6,6,9,9],"right_children":[2,4,6,8,10,12,14,-1,-1,16,-1,-1,-1,-1,-1,-1,-1],"split_conditions":[5.2E0,1.84E1,6.27E1,2.22E1,1.07E1,2.888889E-1,1.355E1,-2.3957586E-2,-9.7872345E-3,5.8E0,-1.2345775E-2,-2.089958E-3,2.2992775E-2,1.0870412E-2,-1.9112958E-2,-9.677812E-3,1.993194E-2],"split_indices":[3,7,12,1,11,0,6,0,0,11,0,0,0,0,0,0,0],"split_type":[0,0,0,0,0,0,0,0,0,0,0,0,0,0,0,0,0],"sum_hessian":[7.2E1,4.1E1,3.1E1,1.7E1,2.4E1,1.7E1,1.4E1,7E0,1E1,1.5E1,9E0,7E0,1E1,7E0,7E0,8E0,7E0],"tree_param":{"num_deleted":"0","num_feature":"16","num_nodes":"17","size_leaf_vector":"1"}},{"base_weights":[2.6573524E-2,-1.2382125E-1,2.9138517E-1,-4.2888676E-3,-3.3749557E-1,7.122407E-2,3.622925E-2,-1.5473333E-1,1.6901014E-2,-1.1697452E-2,-2.1327648E-2,-8.690077E-3,2.4555793E-2,2.9402405E-3,-1.3926192E-2],"categories":[],"categories_nodes":[],"categories_segments":[],"categories_sizes":[],"default_left":[0,0,0,0,0,0,0,0,0,0,0,0,0,0,0],"id":33,"left_children":[1,3,5,7,9,11,-1,13,-1,-1,-1,-1,-1,-1,-1],"loss_changes":[3.3018353E0,1.3522257E0,2.8096042E0,1.8547509E0,7.541847E-2,2.245926E0,0E0,6.7722833E-1,0E0,0E0,0E0,0E0,0E0,0E0,0E0],"parents":[2147483647,0,0,1,1,2,2,3,3,4,4,5,5,7,7],"right_children":[2,4,6,8,10,12,-1,14,-1,-1,-1,-1,-1,-1,-1],"split_conditions":[1.34E1,8.14E1,7.072855E-2,7.4786395E-2,2.9E0,4.2E0,3.622925E-2,2.21E1,1.6901014E-2,-1.1697452E-2,-2.1327648E-2,-8.690077E-3,2.4555793E-2,2.9402405E-3,-1.3926192E-2],"split_indices":[6,12,13,13,10,10,0,1,0,0,0,0,0,0,0],"split_type":[0,0,0,0,0,0,0,0,0,0,0,0,0,0,0],"sum_hessian":[8.1E1,5.2E1,2.9E1,3.4E1,1.8E1,2E1,9E0,2.4E1,1E1,1E1,8E0,1.3E1,7E0,9E0,1.5E1],"tree_param":{"num_deleted":"0","num_feature":"16","num_nodes":"15","size_leaf_vector":"1"}},{"base_weights":[-1.6696535E-2,-1.4426732E-1,1.9002153E-1,4.8753708E-3,-2.4422745E-1,-4.747896E-2,3.6516625E-2,-1.6783409E-1,-2.16665E-2,-1.1521618E-2,9.07031E-3,-1.2323558E-3,-1.1446897E-2],"categories":[],"categories_nodes":[],"categories_segments":[],"categories_sizes":[],"default_left":[0,0,0,0,0,0,0,0,0,0,0,0,0],"id":34,"left_children":[1,3,5,-1,7,9,-1,11,-1,-1,-1,-1,-1],"loss_changes":[1.7942833E0,1.0388631E0,3.3711023E0,0E0,3.6065793E-1,8.374328E-1,0E0,1.9559073E-1,0E0,0E0,0E0,0E0,0E0],"parents":[2147483647,0,0,1,1,2,2,4,4,5,5,7,7],"right_children":[2,4,6,-1,8,10,-1,12,-1,-1,-1,-1,-1],"split_conditions":[8.35E0,5.79E1,1.615E1,4.8753708E-3,3.4E0,3.8E0,3.6516625E-2,5.8809694E-2,-2.16665E-2,-1.1521618E-2,9.07031E-3,-1.2323558E-3,-1.1446897E-2],"split_indices":[4,12,5,0,10,10,0,13,0,0,0,0,0],"split_type":[0,0,0,0,0,0,0,0,0,0,0,0,0],"sum_hessian":[6.6E1,4.1E1,2.5E1,1.2E1,2.9E1,1.8E1,7E0,2.2E1,7E0,1E1,8E0,7E0,1.5E1],"tree_param":{"num_deleted":"0","num_feature":"16","num_nodes":"13","size_leaf_vector":"1"}},{"base_weights":[9.51224E-3,-1.0967866E-1,4.5066017E-1,-1.9638826E-1,2.9975438E-2,4.435723E-3,4.233799E-2,-2.5711253E-1,3.5528669E-3,1.3847823E-2,-1.3033353E-2,-3.2831657E-1,-7.105663E-3,-1.06039485E-2,-2.0586127E-2],"categories":[],"categories_nodes":[],"categories_segments":[],"categories_sizes":[],"default_left":[0,0,0,0,0,0,0,0,0,0,0,0,0,0,0],"id":35,"left_children":[1,3,5,7,9,-1,-1,11,-1,-1,-1,13,-1,-1,-1],"loss_changes":[4.203313E0,7.687759E-1,2.3621116E0,6.5164673E-1,1.866773E0,0E0,0E0,2.1537113E-1,0E0,0E0,0E0,9.688568E-2,0E0,0E0,0E0],"parents":[2147483647,0,0,1,1,2,2,3,3,4,4,7,7,11,11],"right_children":[2,4,6,8,10,-1,-1,12,-1,-1,-1,14,-1,-1,-1],"split_conditions":[1.38E1,1.61E1,1.64E1,8.55E0,1.65E1,4.435723E-3,4.233799E-2,2.53E1,3.5528669E-3,1.3847823E-2,-1.3033353E-2,3.3E0,-7.105663E-3,-1.06039485E-2,-2.0586127E-2],"split_indices":[6,5,5,4,5,0,0,1,0,0,0,10,0,0,0],"split_type":[0,0,0,0,0,0,0,0,0,0,0,0,0,0,0],"sum_hessian":[7.8E1,6.2E1,1.6E1,3.8E1,2.4E1,9E0,7E0,3.1E1,7E0,1.3E1,1.1E1,1.8E1,1.3E1,9E0,9E0],"tree_param":{"num_deleted":"0","num_feature":"16","num_nodes":"15","size_leaf_vector":"1"}},{"base_weights":[-1.0016335E-2,2.9831082E-1,-1.2195319E-1,-3.4293667E-3,2.7431263E-2,-1.7594893E-1,6.9311275E-3,-7.606723E-2,-3.1388253E-1,-1.9704275E-1,1.2550096E-2,-8.731323E-3,-1.9028153E-2,-5.5677234E-3,-1.3240904E-2],"categories":[],"categories_nodes":[],"categories_segments":[],"categories_sizes":[],"default_left":[0,0,0,0,0,0,0,0,0,0,0,0,0,0,0],"id":36,"left_children":[1,3,5,-1,-1,7,-1,9,11,13,-1,-1,-1,-1,-1],"loss_changes":[2.5903547E0,1.8744264E0,7.9823947E-1,0E0,0E0,6.098678E-1,0E0,1.1573442E0,1.09971285E-1,9.246993E-2,0E0,0E0,0E0,0E0,0E0],"parents":[2147483647,0,0,1,1,2,2,5,5,7,7,8,8,9,9],"right_children":[2,4,6,-1,-1,8,-1,10,12,14,-1,-1,-1,-1,-1],"split_conditions":[5.79E1,6.787234E-1,1.38E1,-3.4293667E-3,2.7431263E-2,6.6390043E-1,6.9311275E-3,6.437247E-1,8.05E0,1.235E1,1.2550096E-2,-8.731323E-3,-1.9028153E-2,-5.5677234E-3,-1.3240904E-2],"split_indices":[12,15,6,0,0,15,0,15,4,6,0,0,0,0,0],"split_type":[0,0,0,0,0,0,0,0,0,0,0,0,0,0,0],"sum_hessian":[7.3E1,1.9E1,5.4E1,8E0,1.1E1,4.5E1,9E0,2.7E1,1.8E1,2E1,7E0,7E0,1.1E1,1E1,1E1],"tree_param":{"num_deleted":"0","num_feature":"16","num_nodes":"15","size_leaf_vector":"1"}},{"base_weights":[-1.7014444E-2,-1.746347E-1,2.1276696E-1,-9.091955E-2,-2.6364908E-2,2.9973282E-2,-3.6749665E-2,-1.783058E-1,6.392026E-3,-9.9884905E-3,1.2656465E-2,-3.6398899E-3,-2.0856754E-1,-1.3484421E-2,-6.757972E-3],"categories":[],"categories_nodes":[],"categories_segments":[],"categories_sizes":[],"default_left":[0,0,0,0,0,0,0,0,0,0,0,0,0,0,0],"id":37,"left_children":[1,3,5,7,-1,-1,9,11,-1,-1,-1,-1,13,-1,-1],"loss_changes":[2.9346128E0,1.3691753E0,3.2061257E0,7.874597E-1,0E0,0E0,1.0429459E0,7.7409565E-2,0E0,0E0,0E0,0E0,6.2257946E-2,0E0,0E0],"parents":[2147483647,0,0,1,1,2,2,3,3,6,6,7,7,12,12],"right_children":[2,4,6,8,-1,-1,10,12,-1,-1,-1,-1,14,-1,-1],"split_conditions":[1.62E1,1.6E1,7.4413145E-1,5.4E0,-2.6364908E-2,2.9973282E-2,5.3E0,4.05E0,6.392026E-3,-9.9884905E-3,1.2656465E-2,-3.6398899E-3,2.1111111E-1,-1.3484421E-2,-6.757972E-3],"split_indices":[5,5,15,3,0,0,3,3,0,0,0,0,0,0,0],"split_type":[0,0,0,0,0,0,0,0,0,0,0,0,0,0,0],"sum_hessian":[7.9E1,4.7E1,3.2E1,3.9E1,8E0,1.2E1,2E1,2.8E1,1.1E1,1.3E1,7E0,7E0,2.1E1,1E1,1.1E1],"tree_param":{"num_deleted":"0","num_feature":"16","num_nodes":"15","size_leaf_vector":"1"}},{"base_weights":[-5.598803E-2,-3.3167806E-1,5.9505716E-2,-9.65968E-3,-2.5512261E-2,-9.322558E-2,4.5264006E-1,5.805781E-2,-2.0012919E-2,3.860038E-2,3.8346231E-3,-1.4756957E-1,2.1119066E-2,-4.3518483E-3,-1.0617785E-2],"categories":[],"categories_nodes":[],"categories_segments":[],"categories_sizes":[],"default_left":[0,0,0,0,0,0,0,0,0,0,0,0,0,0,0],"id":38,"left_children":[1,3,5,-1,-1,7,9,11,-1,-1,-1,13,-1,-1,-1],"loss_changes":[2.3759317E0,4.4545722E-1,3.2245255E0,0E0,0E0,1.8347476E0,1.7417748E0,2.0850325E0,0E0,0E0,0E0,5.2107334E-2,0E0,0E0,0E0],"parents":[2147483647,0,0,1,1,2,2,5,5,6,6,7,7,11,11],"right_children":[2,4,6,-1,-1,8,10,12,-1,-1,-1,14,-1,-1,-1],"split_conditions":[5.4854933E-2,3.9E0,6.9716775E-1,-9.65968E-3,-2.5512261E-2,1.59E1,7.4660635E-1,8.35E0,-2.0012919E-2,3.860038E-2,3.8346231E-3,2.02E1,2.1119066E-2,-4.3518483E-3,-1.0617785E-2],"split_indices":[13,10,15,0,0,5,15,4,0,0,0,2,0,0,0],"split_type":[0,0,0,0,0,0,0,0,0,0,0,0,0,0,0],"sum_hessian":[7.3E1,2.1E1,5.2E1,1.3E1,8E0,3.8E1,1.4E1,2.6E1,1.2E1,7E0,7E0,1.7E1,9E0,1E1,7E0],"tree_param":{"num_deleted":"0","num_feature":"16","num_nodes":"15","size_leaf_vector":"1"}},{"base_weights":[-3.1474147E-2,-1.5982978E-1,1.3797618E-1,-3.0557263E-1,-3.7790433E-2,3.9328995E-1,-1.1043538E-1,-7.971718E-3,-1.887669E-2,-1.1796578E-1,6.8653E-3,1.8710423E-3,3.329596E-2,-1.553576E-2,7.6859402E-3,1.8901238E-3,-1.48965195E-2],"categories":[],"categories_nodes":[],"categories_segments":[],"categories_sizes":[],"default_left":[0,0,0,0,0,0,0,0,0,0,0,0,0,0,0,0,0],"id":39,"left_children":[1,3,5,7,9,11,13,-1,-1,15,-1,-1,-1,-1,-1,-1,-1],"loss_changes":[1.6097956E0,7.354795E-1,2.0729659E0,1.3961744E-1,3.531194E-1,1.5274055E0,9.4714344E-1,0E0,0E0,4.8781964E-1,0E0,0E0,0E0,0E0,0E0,0E0,0E0],"parents":[2147483647,0,0,1,1,2,2,3,3,4,4,5,5,6,6,9,9],"right_children":[2,4,6,8,10,12,14,-1,-1,16,-1,-1,-1,-1,-1,-1,-1],"split_conditions":[6.788009E-1,6.59E1,7.4660635E-1,1.47E1,2.075E1,7.1555555E-1,1.75E1,-7.971718E-3,-1.887669E-2,9.86E1,6.8653E-3,1.8710423E-3,3.329596E-2,-1.553576E-2,7.6859402E-3,1.8901238E-3,-1.48965195E-2],"split_indices":[15,12,15,7,2,15,7,0,0,12,0,0,0,0,0,0,0],"split_type":[0,0,0,0,0,0,0,0,0,0,0,0,0,0,0,0,0],"sum_hessian":[7.2E1,4.1E1,3.1E1,1.8E1,2.3E1,1.5E1,1.6E1,7E0,1.1E1,1.6E1,7E0,7E0,8E0,9E0,7E0,9E0,7E0],"tree_param":{"num_deleted":"0","num_feature":"16","num_nodes":"17","size_leaf_vector":"1"}},{"base_weights":[2.9567353E-2,-3.2852404E-2,2.7041722E-2,-1.9970478E-2,2.4593573E-2,-1.5115657E-1,3.1905547E-1,-2.1798852E-1,2.5544283E-3,-5.709256E-4,3.2528374E-2,-9.331124E-4,-2.9678592E-1,-6.879805E-3,-2.2110807E-2],"categories":[],"categories_nodes":[],"categories_segments":[],"categories_sizes":[],"default_left":[0,0,0,0,0,0,0,0,0,0,0,0,0,0,0],"id":40,"left_children":[1,3,-1,-1,5,7,9,11,-1,-1,-1,-1,13,-1,-1],"loss_changes":[2.347429E0,1.3996003E0,0E0,0E0,3.049827E0,5.1124495E-1,2.4176626E0,4.3424022E-1,0E0,0E0,0E0,0E0,4.0217304E-1,0E0,0E0],"parents":[2147483647,0,0,1,1,4,4,5,5,6,6,7,7,12,12],"right_children":[2,4,-1,-1,6,8,10,12,-1,-1,-1,-1,14,-1,-1],"split_conditions":[6.4E0,4.0476702E-2,2.7041722E-2,-1.9970478E-2,6.827309E-1,2.61E1,2.13E1,3E0,2.5544283E-3,-5.709256E-4,3.2528374E-2,-9.331124E-4,3.1E0,-6.879805E-3,-2.2110807E-2],"split_indices":[3,13,0,0,15,1,2,8,0,0,0,0,10,0,0],"split_type":[0,0,0,0,0,0,0,0,0,0,0,0,0,0,0],"sum_hessian":[7.2E1,6.5E1,7E0,8E0,5.7E1,3.6E1,2.1E1,2.7E1,9E0,1.1E1,1E1,8E0,1.9E1,1E1,9E0],"tree_param":{"num_deleted":"0","num_feature":"16","num_nodes":"15","size_leaf_vector":"1"}},{"base_weights":[6.145525E-3,-8.646722E-2,3.4899595E-1,-2.0449972E-2,-3.211709E-2,4.9265563E-3,2.8034175E-2,1.8849123E-2,-1.0977196E-1,8.218443E-4,-2.2520992E-1,-1.5760513E-1,1.4999074E-2,-1.195273E-1,-2.0421198E-2,-3.1147066E-3,-1.090467E-2,-1.0881803E-2,2.8929787E-4],"categories":[],"categories_nodes":[],"categories_segments":[],"categories_sizes":[],"default_left":[0,0,0,0,0,0,0,0,0,0,0,0,0,0,0,0,0,0,0],"id":41,"left_children":[1,3,5,-1,7,-1,-1,-1,9,11,13,15,-1,17,-1,-1,-1,-1,-1],"loss_changes":[2.53861E0,1.0912333E0,8.4609985E-1,0E0,1.7886536E0,0E0,0E0,0E0,6.0022116E-1,1.2321523E0,3.965205E-1,8.442241E-2,0E0,1.9796844E-1,0E0,0E0,0E0,0E0,0E0],"parents":[2147483647,0,0,1,1,2,2,4,4,8,8,9,9,10,10,11,11,13,13],"right_children":[2,4,6,-1,8,-1,-1,-1,10,12,14,16,-1,18,-1,-1,-1,-1,-1],"split_conditions":[4.9E0,2.2E1,1.285E1,-2.0449972E-2,2.265E1,4.9265563E-3,2.8034175E-2,1.8849123E-2,3.9E0,8.35E0,2.6666668E-1,1.35E1,1.4999074E-2,2.4444444E-1,-2.0421198E-2,-3.1147066E-3,-1.090467E-2,-1.0881803E-2,2.8929787E-4],"split_indices":[10,1,6,0,1,0,0,0,8,4,0,7,0,0,0,0,0,0,0],"split_type":[0,0,0,0,0,0,0,0,0,0,0,0,0,0,0,0,0,0,0],"sum_hessian":[7.8E1,6.2E1,1.6E1,8E0,5.4E1,8E0,8E0,8E0,4.6E1,2.4E1,2.2E1,1.6E1,8E0,1.5E1,7E0,7E0,9E0,8E0,7E0],"tree_param":{"num_deleted":"0","num_feature":"16","num_nodes":"19","size_leaf_vector":"1"}},{"base_weights":[-2.2948004E-2,-1.393336E-1,1.21497385E-1,-5.206236E-2,-2.5186433E-2,-2.0635147E-2,2.593014E-2,-1.5929604E-1,1.1597572E-2,1.1034542E-1,-1.0463821E-2,-1.4304108E-2,-9.75284E-2,1.4266717E-2,-2.873045E-3,-6.4324605E-4,-7.896615E-3],"categories":[],"categories_nodes":[],"categories_segments":[],"categories_sizes":[],"default_left":[0,0,0,0,0,0,0,0,0,0,0,0,0,0,0,0,0],"id":42,"left_children":[1,3,5,7,-1,9,-1,11,-1,13,-1,-1,15,-1,-1,-1,-1],"loss_changes":[1.2777809E0,1.3094256E0,1.9297154E0,1.1029034E0,0E0,6.655095E-1,0E0,1.7571217E-1,0E0,4.8622352E-1,0E0,0E0,9.513429E-2,0E0,0E0,0E0,0E0],"parents":[2147483647,0,0,1,1,2,2,3,3,5,5,7,7,9,9,12,12],"right_children":[2,4,6,8,-1,10,-1,12,-1,14,-1,-1,16,-1,-1,-1,-1],"split_conditions":[8.35E0,1.675E1,1.645E1,1.62E1,-2.5186433E-2,1.59E1,2.593014E-2,5.85E1,1.1597572E-2,3.8E0,-1.0463821E-2,-1.4304108E-2,8.14E1,1.4266717E-2,-2.873045E-3,-6.4324605E-4,-7.896615E-3],"split_indices":[4,5,5,5,0,5,0,12,0,8,0,0,12,0,0,0,0],"split_type":[0,0,0,0,0,0,0,0,0,0,0,0,0,0,0,0,0],"sum_hessian":[7.4E1,4.1E1,3.3E1,3.4E1,7E0,2.5E1,8E0,2.5E1,9E0,1.5E1,1E1,7E0,1.8E1,7E0,8E0,8E0,1E1],"tree_param":{"num_deleted":"0","num_feature":"16","num_nodes":"17","size_leaf_vector":"1"}},{"base_weights":[5.320449E-2,3.2138713E-2,-1.4934971E-2,-2.0673952E-1,8.9631304E-2,-1.5298489E-2,-1.4204471E-1,-4.421279E-2,1.9935936E-2,-3.2740615E-3,-1.0999673E-2,-1.5399411E-1,9.467467E-3,-9.213734E-4,-1.2842933E-2],"categories":[],"categories_nodes":[],"categories_segments":[],"categories_sizes":[],"default_left":[0,0,0,0,0,0,0,0,0,0,0,0,0,0,0],"id":43,"left_children":[1,-1,3,5,7,-1,9,11,-1,-1,-1,13,-1,-1,-1],"loss_changes":[3.1029181E0,0E0,1.4224703E0,1.1703074E-1,1.9206265E0,0E0,8.7051004E-2,8.753037E-1,0E0,0E0,0E0,3.1600177E-1,0E0,0E0,0E0],"parents":[2147483647,0,0,2,2,3,3,4,4,6,6,7,7,11,11],"right_children":[2,-1,4,6,8,-1,10,12,-1,-1,-1,14,-1,-1,-1],"split_conditions":[3.7E0,3.2138713E-2,5.4854933E-2,2.14E1,1.615E1,-1.5298489E-2,4.7559798E-2,4.7E0,1.9935936E-2,-3.2740615E-3,-1.0999673E-2,1.275E1,9.467467E-3,-9.213734E-4,-1.2842933E-2],"split_indices":[11,0,13,1,5,0,13,8,0,0,0,6,0,0,0],"split_type":[0,0,0,0,0,0,0,0,0,0,0,0,0,0,0],"sum_hessian":[7.6E1,7E0,6.9E1,2.4E1,4.5E1,8E0,1.6E1,3.2E1,1.3E1,9E0,7E0,2.2E1,1E1,1E1,1.2E1],"tree_param":{"num_deleted":"0","num_feature":"16","num_nodes":"15","size_leaf_vector":"1"}},{"base_weights":[-8.205302E-3,-8.6250454E-2,1.606427E-2,-2.2552687E-1,9.919757E-2,-2.0874089E-2,-1.3972384E-1,3.266299E-2,-1.3931273E-1,-9.743495E-3,-3.6914907E-3,7.0095214E-4,-1.5561952E-2],"categories":[],"categories_nodes":[],"categories_segments":[],"categories_sizes":[],"default_left":[0,0,0,0,0,0,0,0,0,0,0,0,0],"id":44,"left_children":[1,3,-1,5,7,-1,9,-1,11,-1,-1,-1,-1],"loss_changes":[1.8792018E0,1.5462554E0,0E0,5.0165844E-1,3.5268958E0,0E0,7.645768E-2,0E0,5.052368E-1,0E0,0E0,0E0,0E0],"parents":[2147483647,0,0,1,1,3,3,4,4,6,6,8,8],"right_children":[2,4,-1,6,8,-1,10,-1,12,-1,-1,-1,-1],"split_conditions":[4.9E0,7.185952E-2,1.606427E-2,2.2E1,1.97E1,-2.0874089E-2,8.25E0,3.266299E-2,3.1E0,-9.743495E-3,-3.6914907E-3,7.0095214E-4,-1.5561952E-2],"split_indices":[10,13,0,1,7,0,4,0,10,0,0,0,0],"split_type":[0,0,0,0,0,0,0,0,0,0,0,0,0],"sum_hessian":[7.1E1,5.8E1,1.3E1,3.3E1,2.5E1,9E0,2.4E1,7E0,1.8E1,1.2E1,1.2E1,1E1,8E0],"tree_param":{"num_deleted":"0","num_feature":"16","num_nodes":"13","size_leaf_vector":"1"}},{"base_weights":[-6.4563425E-3,2.4356292E-1,-1.6058618E-1,2.3861974E-2,3.2930426E-2,-1.7572228E-2,-8.510775E-2,-9.594104E-3,1.2939711E-2,5.147466E-3,-1.446413E-1,-9.568068E-2,-1.0915316E-2,-7.94753E-3,-7.3747867E-4],"categories":[],"categories_nodes":[],"categories_segments":[],"categories_sizes":[],"default_left":[0,0,0,0,0,0,0,0,0,0,0,0,0,0,0],"id":45,"left_children":[1,3,5,7,-1,-1,9,-1,-1,-1,11,13,-1,-1,-1],"loss_changes":[2.9292698E0,2.6286755E0,6.4715695E-1,1.0633627E0,0E0,0E0,4.0674034E-1,0E0,0E0,0E0,7.6492846E-2,8.982465E-2,0E0,0E0,0E0],"parents":[2147483647,0,0,1,1,2,2,3,3,6,6,10,10,11,11],"right_children":[2,4,6,8,-1,-1,10,-1,-1,-1,12,14,-1,-1,-1],"split_conditions":[6.15E1,2.888889E-1,6.76E1,3.8E0,3.2930426E-2,-1.7572228E-2,4.5E0,-9.594104E-3,1.2939711E-2,5.147466E-3,8.266884E-2,2.43E1,-1.0915316E-2,-7.94753E-3,-7.3747867E-4],"split_indices":[12,0,12,10,0,0,11,0,0,0,13,1,0,0,0],"split_type":[0,0,0,0,0,0,0,0,0,0,0,0,0,0,0],"sum_hessian":[7.4E1,2.8E1,4.6E1,1.9E1,9E0,1.2E1,3.4E1,1E1,9E0,8E0,2.6E1,1.7E1,9E0,9E0,8E0],"tree_param":{"num_deleted":"0","num_feature":"16","num_nodes":"15","size_leaf_vector":"1"}},{"base_weights":[6.8803853E-3,-1.22099884E-1,1.9427955E-1,-1.7979771E-1,1.6821837E-2,-4.219044E-2,3.0580897E-2,-1.6507559E-2,-1.1246442E-1,1.20015135E-2,-1.0424466E-2,4.5542135E-3,-9.1872765E-3,-5.164404E-4,-1.7986624E-1,-4.989856E-3,-1.18726045E-2],"categories":[],"categories_nodes":[],"categories_segments":[],"categories_sizes":[],"default_left":[0,0,0,0,0,0,0,0,0,0,0,0,0,0,0,0,0],"id":46,"left_children":[1,3,5,7,9,11,-1,-1,13,-1,-1,-1,-1,-1,15,-1,-1],"loss_changes":[1.9573852E0,3.877676E-1,3.2825086E0,3.070786E-1,8.044139E-1,4.3178204E-1,0E0,0E0,1.7024535E-1,0E0,0E0,0E0,0E0,0E0,4.5465738E-2,0E0,0E0],"parents":[2147483647,0,0,1,1,2,2,3,3,4,4,5,5,8,8,14,14],"right_children":[2,4,6,8,10,12,-1,-1,14,-1,-1,-1,-1,-1,16,-1,-1],"split_conditions":[7.1014464E-2,8.5E0,6.48E-1,2.2E1,2.14E1,5.964912E-1,3.0580897E-2,-1.6507559E-2,2.7E0,1.20015135E-2,-1.0424466E-2,4.5542135E-3,-9.1872765E-3,-5.164404E-4,4.6E0,-4.989856E-3,-1.18726045E-2],"split_indices":[13,4,15,1,1,15,0,0,8,0,0,0,0,0,3,0,0],"split_type":[0,0,0,0,0,0,0,0,0,0,0,0,0,0,0,0,0],"sum_hessian":[7.9E1,4.7E1,3.2E1,3.3E1,1.4E1,2.1E1,1.1E1,9E0,2.4E1,7E0,7E0,1.1E1,1E1,1E1,1.4E1,7E0,7E0],"tree_param":{"num_deleted":"0","num_feature":"16","num_nodes":"17","size_leaf_vector":"1"}},{"base_weights":[1.8462345E-2,-1.1723148E-1,1.8155012E-1,-1.1234333E-2,-2.5204813E-1,-7.064645E-3,3.4209648E-1,-1.8055311E-1,1.4551254E-2,-5.0255903E-3,-1.9620826E-2,2.7761513E-2,5.022731E-3,-3.4573504E-3,-1.2975964E-2],"categories":[],"categories_nodes":[],"categories_segments":[],"categories_sizes":[],"default_left":[0,0,0,0,0,0,0,0,0,0,0,0,0,0,0],"id":47,"left_children":[1,3,5,7,9,-1,11,13,-1,-1,-1,-1,-1,-1,-1],"loss_changes":[1.6589037E0,5.8306575E-1,1.810599E0,1.2808222E0,3.4343374E-1,0E0,1.1287713E0,1.2281197E-1,0E0,0E0,0E0,0E0,0E0,0E0,0E0],"parents":[2147483647,0,0,1,1,2,2,3,3,4,4,6,6,7,7],"right_children":[2,4,6,8,10,-1,12,14,-1,-1,-1,-1,-1,-1,-1],"split_conditions":[3.8E0,8.14E1,5.5104967E-2,3.7E0,2.9E0,-7.064645E-3,2.6E1,2.47E1,1.4551254E-2,-5.0255903E-3,-1.9620826E-2,2.7761513E-2,5.022731E-3,-3.4573504E-3,-1.2975964E-2],"split_indices":[10,12,13,8,10,0,7,1,0,0,0,0,0,0,0],"split_type":[0,0,0,0,0,0,0,0,0,0,0,0,0,0,0],"sum_hessian":[7.3E1,4E1,3.3E1,2.3E1,1.7E1,1.1E1,2.2E1,1.5E1,8E0,9E0,8E0,1.1E1,1.1E1,7E0,8E0],"tree_param":{"num_deleted":"0","num_feature":"16","num_nodes":"15","size_leaf_vector":"1"}},{"base_weights":[5.0684612E-2,-9.70882E-2,2.657286E-1,1.6060324E-2,-1.8490629E-1,6.555325E-2,2.612269E-2,-9.782106E-2,-1.4654592E-2,-7.385505E-3,1.4761442E-2,-8.483231E-5,-7.1283006E-3],"categories":[],"categories_nodes":[],"categories_segments":[],"categories_sizes":[],"default_left":[0,0,0,0,0,0,0,0,0,0,0,0,0],"id":48,"left_children":[1,3,5,-1,7,9,-1,11,-1,-1,-1,-1,-1],"loss_changes":[2.3455677E0,1.6756822E0,1.507453E0,0E0,3.1991982E-1,9.252732E-1,0E0,9.43819E-2,0E0,0E0,0E0,0E0,0E0],"parents":[2147483647,0,0,1,1,2,2,4,4,5,5,7,7],"right_children":[2,4,6,-1,8,10,-1,12,-1,-1,-1,-1,-1],"split_conditions":[8.35E0,5.45E1,6.709129E-1,1.6060324E-2,1.609E1,6.59E1,2.612269E-2,1.215E1,-1.4654592E-2,-7.385505E-3,1.4761442E-2,-8.483231E-5,-7.1283006E-3],"split_indices":[4,12,15,0,14,12,0,6,0,0,0,0,0],"split_type":[0,0,0,0,0,0,0,0,0,0,0,0,0],"sum_hessian":[7.2E1,4.3E1,2.9E1,7E0,3.6E1,1.7E1,1.2E1,2.1E1,1.5E1,9E0,8E0,7E0,1.4E1],"tree_param":{"num_deleted":"0","num_feature":"16","num_nodes":"13","size_leaf_vector":"1"}},{"base_weights":[2.690951E-2,2.843152E-2,-4.122606E-2,-1.5385348E-1,1.8078326E-1,-7.719496E-2,-1.9955354E-2,-7.746724E-3,2.6529297E-2,-1.4437063E-1,2.8995655E-3,-1.9429033E-1,-2.2564966E-3,-5.8271848E-3,-1.2387534E-2],"categories":[],"categories_nodes":[],"categories_segments":[],"categories_sizes":[],"default_left":[0,0,0,0,0,0,0,0,0,0,0,0,0,0,0],"id":49,"left_children":[1,-1,3,5,7,9,-1,-1,-1,11,-1,13,-1,-1,-1],"loss_changes":[2.6440852E0,0E0,1.6280917E0,7.7762437E-1,2.6657753E0,3.1713396E-1,0E0,0E0,0E0,1.0517526E-1,0E0,3.3471644E-2,0E0,0E0,0E0],"parents":[2147483647,0,0,2,2,3,3,4,4,5,5,9,9,11,11],"right_children":[2,-1,4,6,8,10,-1,-1,-1,12,-1,14,-1,-1,-1],"split_conditions":[1.965E1,2.843152E-2,1.62E1,1.6E1,2.22E1,3.8E0,-1.9955354E-2,-7.746724E-3,2.6529297E-2,2.74E1,2.8995655E-3,1.47E1,-2.2564966E-3,-5.8271848E-3,-1.2387534E-2],"split_indices":[1,0,5,5,1,10,0,0,0,7,0,7,0,0,0],"split_type":[0,0,0,0,0,0,0,0,0,0,0,0,0,0,0],"sum_hessian":[7E1,7E0,6.3E1,4.2E1,2.1E1,3.3E1,9E0,1.1E1,1E1,2.2E1,1.1E1,1.4E1,8E0,7E0,7E0],"tree_param":{"num_deleted":"0","num_feature":"16","num_nodes":"15","size_leaf_vector":"1"}},{"base_weights":[3.5700272E-3,-8.000033E-2,1.9450238E-2,-1.6553393E-2,-2.3165474E-2,-1.0038821E-1,1.974012E-2,-3.1728435E-2,-1.9840432E-2,5.6544854E-3,-9.997201E-2,-5.9959095E-4,-1.4066905E-1,-3.611428E-3,-9.673982E-3],"categories":[],"categories_nodes":[],"categories_segments":[],"categories_sizes":[],"default_left":[0,0,0,0,0,0,0,0,0,0,0,0,0,0,0],"id":50,"left_children":[1,3,-1,-1,5,7,-1,9,-1,-1,11,-1,13,-1,-1],"loss_changes":[2.3503067E0,8.4849393E-1,0E0,0E0,1.6534644E0,8.6255264E-1,0E0,3.670905E-1,0E0,0E0,8.7826416E-2,0E0,4.7469765E-2,0E0,0E0],"parents":[2147483647,0,0,1,1,4,4,5,5,7,7,10,10,12,12],"right_children":[2,4,-1,-1,6,8,-1,10,-1,-1,12,-1,14,-1,-1],"split_conditions":[5.2E0,2.2E1,1.9450238E-2,-1.6553393E-2,7.0305675E-1,2.16E1,1.974012E-2,5E0,-1.9840432E-2,5.6544854E-3,1.985E1,-5.9959095E-4,1.82E1,-3.611428E-3,-9.673982E-3],"split_indices":[10,1,0,0,15,2,0,11,0,0,2,0,7,0,0],"split_type":[0,0,0,0,0,0,0,0,0,0,0,0,0,0,0],"sum_hessian":[7.1E1,5.9E1,1.2E1,1E1,4.9E1,4.2E1,7E0,3.5E1,7E0,1.1E1,2.4E1,8E0,1.6E1,8E0,8E0],"tree_param":{"num_deleted":"0","num_feature":"16","num_nodes":"15","size_leaf_vector":"1"}},{"base_weights":[-1.4298238E-2,-7.150517E-2,2.3329854E-2,1.1790467E-2,-1.9384041E-2,1.40092345E-2,-4.8114702E-2,-1.39974E-1,9.438385E-3,-1.403828E-2,-9.126989E-2,-3.9576173E-2,-8.501111E-3,-3.988329E-3,7.804424E-4],"categories":[],"categories_nodes":[],"categories_segments":[],"categories_sizes":[],"default_left":[0,0,0,0,0,0,0,0,0,0,0,0,0,0,0],"id":51,"left_children":[1,3,-1,5,-1,-1,7,9,-1,-1,11,13,-1,-1,-1],"loss_changes":[2.0691445E0,1.7690866E0,0E0,8.8170385E-1,0E0,0E0,1.0056157E0,2.0065975E-1,0E0,0E0,9.9117175E-2,3.8949497E-2,0E0,0E0,0E0],"parents":[2147483647,0,0,1,1,3,3,6,6,7,7,10,10,11,11],"right_children":[2,4,-1,6,-1,-1,8,10,-1,-1,12,14,-1,-1,-1],"split_conditions":[1.42E1,2.888889E-1,2.3329854E-2,2.26E1,-1.9384041E-2,1.40092345E-2,8.35E0,5.79E1,9.438385E-3,-1.403828E-2,2.96E1,7.99E1,-8.501111E-3,-3.988329E-3,7.804424E-4],"split_indices":[6,0,0,1,0,0,4,12,0,0,7,12,0,0,0],"split_type":[0,0,0,0,0,0,0,0,0,0,0,0,0,0,0],"sum_hessian":[7.3E1,6.6E1,7E0,5.3E1,1.3E1,9E0,4.4E1,3.2E1,1.2E1,7E0,2.5E1,1.6E1,9E0,9E0,7E0],"tree_param":{"num_deleted":"0","num_feature":"16","num_nodes":"15","size_leaf_vector":"1"}},{"base_weights":[4.8559615E-3,-8.219652E-2,3.3099926E-1,-7.4516446E-3,-2.0723676E-2,3.7173782E-3,2.8917877E-2,1.9804426E-1,-9.286794E-2,-1.4234446E-4,1.8708993E-2,-1.4822048E-1,4.4829296E-3,-8.956914E-2,-1.3104393E-2,-7.3137316E-3,-2.0048469E-4],"categories":[],"categories_nodes":[],"categories_segments":[],"categories_sizes":[],"default_left":[0,0,0,0,0,0,0,0,0,0,0,0,0,0,0,0,0],"id":52,"left_children":[1,3,5,7,-1,-1,-1,9,11,-1,-1,13,-1,15,-1,-1,-1],"loss_changes":[2.1565757E0,1.4870718E0,9.727591E-1,8.960269E-1,0E0,0E0,0E0,5.318265E-1,3.7700817E-1,0E0,0E0,1.635223E-1,0E0,9.644726E-2,0E0,0E0,0E0],"parents":[2147483647,0,0,1,1,2,2,3,3,7,7,8,8,11,11,13,13],"right_children":[2,4,6,8,-1,-1,-1,10,12,-1,-1,14,-1,16,-1,-1,-1],"split_conditions":[4.9E0,4E0,1.62E1,5.79E1,-2.0723676E-2,3.7173782E-3,2.8917877E-2,5.49E1,2.99E1,-1.4234446E-4,1.8708993E-2,2.19E1,4.4829296E-3,8.15E0,-1.3104393E-2,-7.3137316E-3,-2.0048469E-4],"split_indices":[10,10,14,12,0,0,0,12,7,0,0,7,0,4,0,0,0],"split_type":[0,0,0,0,0,0,0,0,0,0,0,0,0,0,0,0,0],"sum_hessian":[7.4E1,5.9E1,1.5E1,4.9E1,1E1,8E0,7E0,1.4E1,3.5E1,7E0,7E0,2.7E1,8E0,1.9E1,8E0,1.1E1,8E0],"tree_param":{"num_deleted":"0","num_feature":"16","num_nodes":"17","size_leaf_vector":"1"}},{"base_weights":[-1.2732353E-2,-1.2653418E-1,1.4467473E-1,-1.8375404E-1,6.265727E-3,-4.268956E-2,2.5246793E-2,-2.0123519E-2,-1.0938925E-1,4.6865926E-3,-8.141409E-3,3.139602E-3,-1.7612931E-1,-1.6459016E-3,-1.2846303E-2],"categories":[],"categories_nodes":[],"categories_segments":[],"categories_sizes":[],"default_left":[0,0,0,0,0,0,0,0,0,0,0,0,0,0,0],"id":53,"left_children":[1,3,5,7,-1,9,-1,-1,11,-1,-1,-1,13,-1,-1],"loss_changes":[1.236405E0,5.994571E-1,1.9790574E0,4.9271226E-1,0E0,3.4305173E-1,0E0,0E0,3.098356E-1,0E0,0E0,0E0,2.1139157E-1,0E0,0E0],"parents":[2147483647,0,0,1,1,2,2,3,3,5,5,8,8,12,12],"right_children":[2,4,6,8,-1,10,-1,-1,12,-1,-1,-1,14,-1,-1],"split_conditions":[7.185952E-2,4.9E0,6.48E-1,8.5E0,6.265727E-3,1.53E1,2.5246793E-2,-2.0123519E-2,2.33E1,4.6865926E-3,-8.141409E-3,3.139602E-3,1.47E1,-1.6459016E-3,-1.2846303E-2],"split_indices":[13,10,15,7,0,5,0,0,1,0,0,0,7,0,0],"split_type":[0,0,0,0,0,0,0,0,0,0,0,0,0,0,0],"sum_hessian":[6.7E1,3.9E1,2.8E1,3.2E1,7E0,1.9E1,9E0,7E0,2.5E1,9E0,1E1,7E0,1.8E1,7E0,1.1E1],"tree_param":{"num_deleted":"0","num_feature":"16","num_nodes":"15","size_leaf_vector":"1"}},{"base_weights":[-1.2220683E-2,-1.5341124E-1,1.6159117E-1,-9.224711E-2,-1.6147858E-2,3.4841735E-2,2.9250765E-2,-1.3840981E-1,3.4656252E-3,-1.2619634E-1,2.2660574E-2,-9.529222E-2,-1.1175642E-2,-1.6336255E-3,-1.2363225E-2,-1.4907995E-3,-7.0100375E-3],"categories":[],"categories_nodes":[],"categories_segments":[],"categories_sizes":[],"default_left":[0,0,0,0,0,0,0,0,0,0,0,0,0,0,0,0,0],"id":54,"left_children":[1,3,5,7,-1,9,-1,11,-1,13,-1,15,-1,-1,-1,-1,-1],"loss_changes":[1.9144155E0,4.1612375E-1,1.8580236E0,2.557084E-1,0E0,1.9436504E0,0E0,7.4106276E-2,0E0,2.2969913E-1,0E0,5.1688164E-2,0E0,0E0,0E0,0E0,0E0],"parents":[2147483647,0,0,1,1,2,2,3,3,5,5,7,7,9,9,11,11],"right_children":[2,4,6,8,-1,10,-1,12,-1,14,-1,16,-1,-1,-1,-1,-1],"split_conditions":[3.8E0,1.644E1,6.711898E-2,3E0,-1.6147858E-2,8.2E-1,2.9250765E-2,4.6E0,3.4656252E-3,2.21E1,2.2660574E-2,1.566E1,-1.1175642E-2,-1.6336255E-3,-1.2363225E-2,-1.4907995E-3,-7.0100375E-3],"split_indices":[10,14,13,10,0,15,0,8,0,2,0,14,0,0,0,0,0],"split_type":[0,0,0,0,0,0,0,0,0,0,0,0,0,0,0,0,0],"sum_hessian":[7.6E1,4.2E1,3.4E1,3.2E1,1E1,2.7E1,7E0,2.5E1,7E0,2E1,7E0,1.8E1,7E0,1.2E1,8E0,8E0,1E1],"tree_param":{"num_deleted":"0","num_feature":"16","num_nodes":"17","size_leaf_vector":"1"}},{"base_weights":[-2.43825E-3,1.7255723E-1,-9.5035106E-2,-5.637061E-2,2.317073E-2,-1.6189104E-1,4.518547E-4,-1.2091376E-2,7.965737E-3,-1.7492862E-2,-6.467422E-2,-1.1919277E-2,9.206908E-3,5.8603386E-4,-5.629403E-3],"categories":[],"categories_nodes":[],"categories_segments":[],"categories_sizes":[],"default_left":[0,0,0,0,0,0,0,0,0,0,0,0,0,0,0],"id":55,"left_children":[1,3,5,7,-1,9,11,-1,-1,-1,13,-1,-1,-1,-1],"loss_changes":[1.2641094E0,1.8239272E0,3.2565048E-1,6.7853206E-1,0E0,5.255775E-1,1.0090612E0,0E0,0E0,0E0,7.818744E-2,0E0,0E0,0E0,0E0],"parents":[2147483647,0,0,1,1,2,2,3,3,5,5,6,6,10,10],"right_children":[2,4,6,8,-1,10,12,-1,-1,-1,14,-1,-1,-1,-1],"split_conditions":[5.79E1,1.76E1,8.35E0,1.68E1,2.317073E-2,2.335E1,3.8E0,-1.2091376E-2,7.965737E-3,-1.7492862E-2,7.95E0,-1.1919277E-2,9.206908E-3,5.8603386E-4,-5.629403E-3],"split_indices":[12,7,4,14,0,1,10,0,0,0,4,0,0,0,0],"split_type":[0,0,0,0,0,0,0,0,0,0,0,0,0,0,0],"sum_hessian":[7.6E1,2.6E1,5E1,1.5E1,1.1E1,2.9E1,2.1E1,8E0,7E0,9E0,2E1,9E0,1.2E1,8E0,1.2E1],"tree_param":{"num_deleted":"0","num_feature":"16","num_nodes":"15","size_leaf_vector":"1"}},{"base_weights":[-1.3821784E-2,-6.163623E-2,1.5589483E-2,-1.0321095E-2,-1.7848846E-2,-6.584164E-2,1.3421421E-2,8.481943E-3,-1.6680682E-1,-1.0936791E-1,-1.6272627E-2,-3.1554483E-2,-1.3538855E-2,-3.5885535E-3,1.3843818E-3],"categories":[],"categories_nodes":[],"categories_segments":[],"categories_sizes":[],"default_left":[0,0,0,0,0,0,0,0,0,0,0,0,0,0,0],"id":56,"left_children":[1,3,-1,5,-1,7,-1,-1,9,11,-1,13,-1,-1,-1],"loss_changes":[1.0934738E0,9.20798E-1,0E0,8.3791906E-1,0E0,1.0981867E0,0E0,0E0,2.5600392E-1,3.0545086E-1,0E0,4.487245E-2,0E0,0E0,0E0],"parents":[2147483647,0,0,1,1,3,3,5,5,8,8,9,9,11,11],"right_children":[2,4,-1,6,-1,8,-1,-1,10,12,-1,14,-1,-1,-1],"split_conditions":[1.74E1,1.692E1,1.5589483E-2,1.666E1,-1.7848846E-2,5.79E1,1.3421421E-2,8.481943E-3,5.4E0,7.252252E-1,-1.6272627E-2,8.8E1,-1.3538855E-2,-3.5885535E-3,1.3843818E-3],"split_indices":[14,14,0,14,0,12,0,0,8,15,0,12,0,0,0],"split_type":[0,0,0,0,0,0,0,0,0,0,0,0,0,0,0],"sum_hessian":[6.8E1,6E1,8E0,5.2E1,8E0,4.4E1,8E0,1.3E1,3.1E1,2.4E1,7E0,1.7E1,7E0,1E1,7E0],"tree_param":{"num_deleted":"0","num_feature":"16","num_nodes":"15","size_leaf_vector":"1"}},{"base_weights":[-1.661996E-2,1.15031876E-1,-1.06944114E-1,-9.89407E-3,2.1075288E-2,-1.7611443E-1,9.465272E-3,1.3444801E-2,-1.4867073E-1,-1.619337E-2,-8.258711E-2,-3.5944246E-4,-1.2895673E-2,-1.8043968E-1,6.7836493E-3,-1.1450483E-3,-1.5896477E-2],"categories":[],"categories_nodes":[],"categories_segments":[],"categories_sizes":[],"default_left":[0,0,0,0,0,0,0,0,0,0,0,0,0,0,0,0,0],"id":57,"left_children":[1,3,5,7,-1,9,-1,-1,11,-1,13,-1,-1,15,-1,-1,-1],"loss_changes":[9.041526E-1,1.191053E0,9.5546466E-1,9.2983675E-1,0E0,4.8455334E-1,0E0,0E0,2.4543971E-1,0E0,5.370562E-1,0E0,0E0,3.609388E-1,0E0,0E0,0E0],"parents":[2147483647,0,0,1,1,2,2,3,3,5,5,8,8,10,10,13,13],"right_children":[2,4,6,8,-1,10,-1,-1,12,-1,14,-1,-1,16,-1,-1,-1],"split_conditions":[6.27E1,1.75E1,5.7E0,2.03E1,2.1075288E-2,7.39E1,9.465272E-3,1.3444801E-2,2.13E1,-1.619337E-2,2.13E1,-3.5944246E-4,-1.2895673E-2,1.588E1,6.7836493E-3,-1.1450483E-3,-1.5896477E-2],"split_indices":[12,7,8,1,0,12,0,0,2,0,2,0,0,14,0,0,0],"split_type":[0,0,0,0,0,0,0,0,0,0,0,0,0,0,0,0,0],"sum_hessian":[7.4E1,3E1,4.4E1,2.2E1,8E0,3.6E1,8E0,7E0,1.5E1,1.3E1,2.3E1,7E0,8E0,1.6E1,7E0,8E0,8E0],"tree_param":{"num_deleted":"0","num_feature":"16","num_nodes":"17","size_leaf_vector":"1"}},{"base_weights":[2.3210235E-2,-1.5820193E-1,1.1343277E-1,-5.2334927E-2,-1.6441597E-2,2.3715269E-2,-2.0033246E-2,-1.071209E-2,4.869865E-3,-1.7051642E-1,1.1431004E-2,-2.8280683E-3,-1.2691164E-2],"categories":[],"categories_nodes":[],"categories_segments":[],"categories_sizes":[],"default_left":[0,0,0,0,0,0,0,0,0,0,0,0,0],"id":58,"left_children":[1,3,5,7,-1,-1,9,-1,-1,11,-1,-1,-1],"loss_changes":[1.1800352E0,4.1632873E-1,2.321385E0,4.0874937E-1,0E0,0E0,1.3860365E0,0E0,0E0,2.0398784E-1,0E0,0E0,0E0],"parents":[2147483647,0,0,1,1,2,2,3,3,6,6,9,9],"right_children":[2,4,6,8,-1,-1,10,-1,-1,12,-1,-1,-1],"split_conditions":[5.5104967E-2,3.9E0,5.79E1,6.04E1,-1.6441597E-2,2.3715269E-2,3.8E0,-1.071209E-2,4.869865E-3,1.588E1,1.1431004E-2,-2.8280683E-3,-1.2691164E-2],"split_indices":[13,10,12,12,0,0,10,0,0,14,0,0,0],"split_type":[0,0,0,0,0,0,0,0,0,0,0,0,0],"sum_hessian":[7E1,2.3E1,4.7E1,1.5E1,8E0,1.2E1,3.5E1,7E0,8E0,2.2E1,1.3E1,1E1,1.2E1],"tree_param":{"num_deleted":"0","num_feature":"16","num_nodes":"13","size_leaf_vector":"1"}},{"base_weights":[2.178305E-2,-3.0563315E-2,2.0348392E-2,-9.661999E-2,7.5270146E-2,-2.366413E-2,-1.9027941E-1,1.4533336E-2,-7.2509244E-2,-8.543237E-3,5.9428662E-2,-5.039823E-4,-1.5478631E-2,-8.219893E-3,3.1450621E-3,9.814342E-3,-2.2753575E-3],"categories":[],"categories_nodes":[],"categories_segments":[],"categories_sizes":[],"default_left":[0,0,0,0,0,0,0,0,0,0,0,0,0,0,0,0,0],"id":59,"left_children":[1,3,-1,5,7,9,11,-1,13,-1,15,-1,-1,-1,-1,-1,-1],"loss_changes":[1.6859692E0,5.246071E-1,0E0,3.0981532E-1,9.4418025E-1,3.4039962E-1,4.268117E-1,0E0,2.3430909E-1,0E0,2.6743627E-1,0E0,0E0,0E0,0E0,0E0,0E0],"parents":[2147483647,0,0,1,1,3,3,4,4,5,5,6,6,8,8,10,10],"right_children":[2,4,-1,6,8,10,12,-1,14,-1,16,-1,-1,-1,-1,-1,-1],"split_conditions":[1.714E1,6.827309E-1,2.0348392E-2,1.585E1,5.79E1,2.4444444E-1,1.58E1,1.4533336E-2,1.305E1,-8.543237E-3,4.5E0,-5.039823E-4,-1.5478631E-2,-8.219893E-3,3.1450621E-3,9.814342E-3,-2.2753575E-3],"split_indices":[14,15,0,5,12,0,7,0,6,0,11,0,0,0,0,0,0],"split_type":[0,0,0,0,0,0,0,0,0,0,0,0,0,0,0,0,0],"sum_hessian":[8.2E1,7.3E1,9E0,4.5E1,2.8E1,2.6E1,1.9E1,1.1E1,1.7E1,9E0,1.7E1,8E0,1.1E1,1E1,7E0,7E0,1E1],"tree_param":{"num_deleted":"0","num_feature":"16","num_nodes":"17","size_leaf_vector":"1"}},{"base_weights":[-2.2488197E-2,1.27454195E-2,-5.4792378E-2,2.1636076E-2,-1.4671138E-1,-7.3674396E-2,1.9412983E-2,-1.6322881E-2,-2.0944748E-2,3.070038E-2,-1.3311884E-2,-8.018251E-3,6.1587784E-2,-8.3636455E-3,8.269862E-3,-1.2136642E-3,6.987519E-3],"categories":[],"categories_nodes":[],"categories_segments":[],"categories_sizes":[],"default_left":[0,0,0,0,0,0,0,0,0,0,0,0,0,0,0,0,0],"id":60,"left_children":[1,-1,3,5,7,9,-1,11,-1,13,-1,-1,15,-1,-1,-1,-1],"loss_changes":[6.860473E-1,0E0,4.808897E-1,1.3564414E0,1.0933402E0,6.312349E-1,0E0,2.5676972E-1,0E0,5.876605E-1,0E0,0E0,1.04059055E-1,0E0,0E0,0E0,0E0],"parents":[2147483647,0,0,2,2,3,3,4,4,5,5,7,7,9,9,12,12],"right_children":[2,-1,4,6,8,10,-1,12,-1,14,-1,-1,16,-1,-1,-1,-1],"split_conditions":[1.965E1,1.27454195E-2,3.8E0,1.77E1,2.095E1,6.21683E-2,1.9412983E-2,2.74E1,-2.0944748E-2,2.4E0,-1.3311884E-2,-8.018251E-3,6.076923E-1,-8.3636455E-3,8.269862E-3,-1.2136642E-3,6.987519E-3],"split_indices":[1,0,8,7,2,13,0,7,0,8,0,0,15,0,0,0,0],"split_type":[0,0,0,0,0,0,0,0,0,0,0,0,0,0,0,0,0],"sum_hessian":[7.4E1,7E0,6.7E1,3.7E1,3E1,3E1,7E0,2.1E1,9E0,2E1,1E1,7E0,1.4E1,8E0,1.2E1,7E0,7E0],"tree_param":{"num_deleted":"0","num_feature":"16","num_nodes":"17","size_leaf_vector":"1"}},{"base_weights":[1.746271E-2,-9.068944E-2,1.86319E-1,2.7131408E-2,-1.9545704E-1,-5.2501224E-2,3.0179976E-2,-1.1961713E-1,1.3434886E-2,-1.2591508E-3,-1.7534796E-2,-9.304683E-3,6.572774E-3,-1.1208656E-2,-5.449541E-6],"categories":[],"categories_nodes":[],"categories_segments":[],"categories_sizes":[],"default_left":[0,0,0,0,0,0,0,0,0,0,0,0,0,0,0],"id":61,"left_children":[1,3,5,7,9,11,-1,13,-1,-1,-1,-1,-1,-1,-1],"loss_changes":[1.4048221E0,5.854619E-1,3.0213404E0,8.474794E-1,6.519971E-1,5.159675E-1,0E0,1.8740495E-1,0E0,0E0,0E0,0E0,0E0,0E0,0E0],"parents":[2147483647,0,0,1,1,2,2,3,3,4,4,5,5,7,7],"right_children":[2,4,6,8,10,12,-1,14,-1,-1,-1,-1,-1,-1,-1],"split_conditions":[7.185952E-2,1.46E1,6.48E-1,5.4E0,1.27E1,1.2082932E-1,3.0179976E-2,6.69E1,1.3434886E-2,-1.2591508E-3,-1.7534796E-2,-9.304683E-3,6.572774E-3,-1.1208656E-2,-5.449541E-6],"split_indices":[13,7,15,3,6,13,0,12,0,0,0,0,0,0,0],"split_type":[0,0,0,0,0,0,0,0,0,0,0,0,0,0,0],"sum_hessian":[7.5E1,4.6E1,2.9E1,2.2E1,2.4E1,1.9E1,1E1,1.4E1,8E0,1.2E1,1.2E1,1.1E1,8E0,7E0,7E0],"tree_param":{"num_deleted":"0","num_feature":"16","num_nodes":"15","size_leaf_vector":"1"}},{"base_weights":[-5.7971638E-2,-1.974229E-2,-6.051742E-3,3.0751732E-1,-1.0430769E-1,-3.4547863E-3,3.0405793E-2,-1.5074921E-2,-4.8858773E-2,-1.7205086E-1,7.665993E-2,-6.235141E-3,-1.167018E-2,-5.195511E-3,8.718358E-3],"categories":[],"categories_nodes":[],"categories_segments":[],"categories_sizes":[],"default_left":[0,0,0,0,0,0,0,0,0,0,0,0,0,0,0],"id":62,"left_children":[1,-1,3,5,7,-1,-1,-1,9,11,13,-1,-1,-1,-1],"loss_changes":[1.3093958E0,0E0,2.065538E0,1.8533676E0,5.429038E-1,0E0,0E0,0E0,6.471688E-1,3.1897485E-2,3.886217E-1,0E0,0E0,0E0,0E0],"parents":[2147483647,0,0,2,2,3,3,4,4,8,8,9,9,10,10],"right_children":[2,-1,4,6,8,-1,-1,-1,10,12,14,-1,-1,-1,-1],"split_conditions":[4.91E1,-1.974229E-2,5.79E1,1.61E1,6.49E1,-3.4547863E-3,3.0405793E-2,-1.5074921E-2,4.85E0,2.075E1,1.58E1,-6.235141E-3,-1.167018E-2,-5.195511E-3,8.718358E-3],"split_indices":[12,0,12,5,12,0,0,0,3,2,5,0,0,0,0],"split_type":[0,0,0,0,0,0,0,0,0,0,0,0,0,0,0],"sum_hessian":[7.4E1,9E0,6.5E1,1.5E1,5E1,7E0,8E0,1E1,4E1,2E1,2E1,1.3E1,7E0,7E0,1.3E1],"tree_param":{"num_deleted":"0","num_feature":"16","num_nodes":"15","size_leaf_vector":"1"}},{"base_weights":[9.804872E-2,-2.1496017E-2,2.6070598E-1,6.5722116E-3,-8.493883E-2,1.3501337E-1,2.3848202E-2,-1.1219508E-2,-7.848195E-3,1.4286722E-2,-7.2812573E-3,-3.5714712E-3,3.4617048E-3],"categories":[],"categories_nodes":[],"categories_segments":[],"categories_sizes":[],"default_left":[0,0,0,0,0,0,0,0,0,0,0,0,0],"id":63,"left_children":[1,3,5,-1,7,9,-1,-1,11,-1,-1,-1,-1],"loss_changes":[1.4250758E0,4.2839196E-1,7.7824664E-1,0E0,3.3150104E-1,9.29871E-1,0E0,0E0,1.0786606E-1,0E0,0E0,0E0,0E0],"parents":[2147483647,0,0,1,1,2,2,4,4,5,5,8,8],"right_children":[2,4,6,-1,8,10,-1,-1,12,-1,-1,-1,-1],"split_conditions":[8.4E0,5.54E1,1.645E1,6.5722116E-3,2.36E1,1.59E1,2.3848202E-2,-1.1219508E-2,7.89E1,1.4286722E-2,-7.2812573E-3,-3.5714712E-3,3.4617048E-3],"split_indices":[4,12,5,0,1,5,0,0,12,0,0,0,0],"split_type":[0,0,0,0,0,0,0,0,0,0,0,0,0],"sum_hessian":[7.2E1,4.2E1,3E1,1.2E1,3E1,2E1,1E1,1E1,2E1,1.3E1,7E0,1.1E1,9E0],"tree_param":{"num_deleted":"0","num_feature":"16","num_nodes":"13","size_leaf_vector":"1"}},{"base_weights":[-2.1712699E-3,-1.0118397E-1,1.9594099E-1,-6.067493E-2,-1.5313603E-2,1.3543086E-2,2.9092181E-2,6.4043053E-3,-1.0093641E-1,-7.065519E-3,1.1238686E-2,-5.590737E-2,-1.2577483E-2,2.8117765E-3,-9.414536E-2,-3.4226614E-4,-7.7028642E-3],"categories":[],"categories_nodes":[],"categories_segments":[],"categories_sizes":[],"default_left":[0,0,0,0,0,0,0,0,0,0,0,0,0,0,0,0,0],"id":64,"left_children":[1,3,5,7,-1,9,-1,-1,11,-1,-1,13,-1,-1,15,-1,-1],"loss_changes":[1.4713827E0,3.9681304E-1,1.7518158E0,3.397199E-1,0E0,6.205392E-1,0E0,0E0,2.3008749E-1,0E0,0E0,1.2964976E-1,0E0,0E0,1.1401233E-1,0E0,0E0],"parents":[2147483647,0,0,1,1,2,2,3,3,5,5,8,8,11,11,14,14],"right_children":[2,4,6,8,-1,10,-1,-1,12,-1,-1,14,-1,-1,16,-1,-1],"split_conditions":[5.3E0,5.5E0,1.66E1,5.45E1,-1.5313603E-2,3.6E0,2.9092181E-2,6.4043053E-3,7.3893803E-1,-7.065519E-3,1.1238686E-2,2.7E0,-1.2577483E-2,2.8117765E-3,2.02E1,-3.4226614E-4,-7.7028642E-3],"split_indices":[3,10,5,12,0,8,0,0,15,0,0,8,0,0,2,0,0],"split_type":[0,0,0,0,0,0,0,0,0,0,0,0,0,0,0,0,0],"sum_hessian":[7.3E1,4.9E1,2.4E1,4.2E1,7E0,1.7E1,7E0,7E0,3.5E1,1E1,7E0,2.8E1,7E0,7E0,2.1E1,9E0,1.2E1],"tree_param":{"num_deleted":"0","num_feature":"16","num_nodes":"17","size_leaf_vector":"1"}},{"base_weights":[3.7275337E-2,-2.008202E-3,1.7344212E-2,-7.818635E-2,2.3141289E-1,-1.629887E-2,-1.3382392E-2,2.1332262E-2,1.6080244E-3,-7.987676E-2,8.485344E-3,4.209648E-3,-1.3590771E-1,-1.0658523E-2,-1.9632916E-3],"categories":[],"categories_nodes":[],"categories_segments":[],"categories_sizes":[],"default_left":[0,0,0,0,0,0,0,0,0,0,0,0,0,0,0],"id":65,"left_children":[1,3,-1,5,7,9,-1,-1,-1,11,-1,-1,13,-1,-1],"loss_changes":[8.642364E-1,1.1561148E0,0E0,5.701771E-1,6.086871E-1,4.6293804E-1,0E0,0E0,0E0,2.7803892E-1,0E0,0E0,1.5589967E-1,0E0,0E0],"parents":[2147483647,0,0,1,1,3,3,4,4,5,5,9,9,12,12],"right_children":[2,4,-1,6,8,10,-1,-1,-1,12,-1,-1,14,-1,-1],"split_conditions":[5.4E0,2.21E1,1.7344212E-2,2.16E1,6.15E1,5.1E0,-1.3382392E-2,2.1332262E-2,1.6080244E-3,1.546E1,8.485344E-3,4.209648E-3,2.35E1,-1.0658523E-2,-1.9632916E-3],"split_indices":[8,2,0,2,12,3,0,0,0,14,0,0,1,0,0],"split_type":[0,0,0,0,0,0,0,0,0,0,0,0,0,0,0],"sum_hessian":[7E1,6.3E1,7E0,4.8E1,1.5E1,3.7E1,1.1E1,7E0,8E0,2.8E1,9E0,7E0,2.1E1,1.1E1,1E1],"tree_param":{"num_deleted":"0","num_feature":"16","num_nodes":"15","size_leaf_vector":"1"}},{"base_weights":[-4.439299E-3,-1.2104922E-2,2.400417E-2,-5.654332E-2,2.4641363E-1,2.9969323E-2,-1.5940467E-1,-2.2690427E-3,2.1811329E-2,-7.916463E-2,8.099135E-3,1.8908887E-3,-1.444459E-2,-7.68878E-4,-6.353409E-3],"categories":[],"categories_nodes":[],"categories_segments":[],"categories_sizes":[],"default_left":[0,0,0,0,0,0,0,0,0,0,0,0,0,0,0],"id":66,"left_children":[1,-1,3,5,7,9,11,-1,-1,13,-1,-1,-1,-1,-1],"loss_changes":[5.060403E-1,0E0,1.2142061E0,4.497176E-1,1.016751E0,4.162233E-1,5.9829396E-1,0E0,0E0,4.693602E-2,0E0,0E0,0E0,0E0,0E0],"parents":[2147483647,0,0,2,2,3,3,4,4,5,5,6,6,9,9],"right_children":[2,-1,4,6,8,10,12,-1,-1,14,-1,-1,-1,-1,-1],"split_conditions":[7.3E0,-1.2104922E-2,1.64E1,1.59E1,8.25E0,8.3E0,1.285E1,-2.2690427E-3,2.1811329E-2,1.215E1,8.099135E-3,1.8908887E-3,-1.444459E-2,-7.68878E-4,-6.353409E-3],"split_indices":[7,0,5,5,4,4,6,0,0,6,0,0,0,0,0],"split_type":[0,0,0,0,0,0,0,0,0,0,0,0,0,0,0],"sum_hessian":[7.3E1,7E0,6.6E1,4.9E1,1.7E1,2.7E1,2.2E1,7E0,1E1,1.5E1,1.2E1,9E0,1.3E1,7E0,8E0],"tree_param":{"num_deleted":"0","num_feature":"16","num_nodes":"15","size_leaf_vector":"1"}},{"base_weights":[2.9305972E-2,8.779825E-2,-1.71063E-2,-6.439711E-2,2.0373358E-1,2.4512375E-2,-8.443528E-3,4.549267E-2,2.4009941E-2,-3.958714E-3,6.9047916E-3,1.3120852E-2,-1.0215643E-1,-1.3157503E-4,-9.445591E-3],"categories":[],"categories_nodes":[],"categories_segments":[],"categories_sizes":[],"default_left":[0,0,0,0,0,0,0,0,0,0,0,0,0,0,0],"id":67,"left_children":[1,3,-1,5,7,9,-1,11,-1,-1,-1,-1,13,-1,-1],"loss_changes":[1.594303E0,1.1247436E0,0E0,2.6422244E-1,1.5530866E0,1.9936705E-1,0E0,7.9549617E-1,0E0,0E0,0E0,0E0,1.2901776E-1,0E0,0E0],"parents":[2147483647,0,0,1,1,3,3,4,4,5,5,7,7,12,12],"right_children":[2,4,-1,6,8,10,-1,12,-1,-1,-1,-1,14,-1,-1],"split_conditions":[1.4E1,6.48E-1,-1.71063E-2,1.596E1,8.35E0,4E0,-8.443528E-3,5.3E0,2.4009941E-2,-3.958714E-3,6.9047916E-3,1.3120852E-2,2E1,-1.3157503E-4,-9.445591E-3],"split_indices":[6,15,0,14,4,8,0,11,0,0,0,0,1,0,0],"split_type":[0,0,0,0,0,0,0,0,0,0,0,0,0,0,0],"sum_hessian":[7.1E1,6.2E1,9E0,2.7E1,3.5E1,1.5E1,1.2E1,2.3E1,1.2E1,8E0,7E0,9E0,1.4E1,7E0,7E0],"tree_param":{"num_deleted":"0","num_feature":"16","num_nodes":"15","size_leaf_vector":"1"}},{"base_weights":[5.0347347E-2,9.284034E-2,-1.77159E-2,1.745834E-2,4.803371E-2,-7.760558E-2,2.0667578E-1,-1.3467131E-2,-1.3782555E-2,4.6831116E-2,2.3199122E-2,5.1668654E-3,-6.288488E-2,-6.4071636E-3,1.517194E-2,-7.3718587E-3,2.2433174E-3],"categories":[],"categories_nodes":[],"categories_segments":[],"categories_sizes":[],"default_left":[0,0,0,0,0,0,0,0,0,0,0,0,0,0,0,0,0],"id":68,"left_children":[1,3,-1,-1,5,7,9,11,-1,13,-1,-1,15,-1,-1,-1,-1],"loss_changes":[1.4429214E0,8.4461266E-1,0E0,0E0,1.3115983E0,4.6627414E-1,1.1710149E0,1.7389253E-1,0E0,8.9197934E-1,0E0,0E0,1.9793785E-1,0E0,0E0,0E0,0E0],"parents":[2147483647,0,0,1,1,4,4,5,5,6,6,7,7,9,9,12,12],"right_children":[2,4,-1,-1,6,8,10,12,-1,14,-1,-1,16,-1,-1,-1,-1],"split_conditions":[2.85E1,1.56E1,-1.77159E-2,1.745834E-2,1.62E1,2.15E1,2.22E1,1.549E1,-1.3782555E-2,4.2E0,2.3199122E-2,5.1668654E-3,4.9E0,-6.4071636E-3,1.517194E-2,-7.3718587E-3,2.2433174E-3],"split_indices":[1,5,0,0,5,2,1,14,0,10,0,0,3,0,0,0,0],"split_type":[0,0,0,0,0,0,0,0,0,0,0,0,0,0,0,0,0],"sum_hessian":[8.1E1,7.4E1,7E0,1E1,6.4E1,3.6E1,2.8E1,2.8E1,8E0,1.8E1,1E1,8E0,2E1,1.1E1,7E0,1.1E1,9E0],"tree_param":{"num_deleted":"0","num_feature":"16","num_nodes":"17","size_leaf_vector":"1"}},{"base_weights":[2.376436E-2,1.22426145E-1,-6.040029E-2,4.2214703E-2,1.9255355E-2,-1.803316E-2,2.7408309E-3,-1.1490578E-2,1.8269442E-1,-8.026131E-2,8.7459525E-3,1.55261895E-2,5.514875E-4,-9.519767E-3,-1.4616774E-2,5.865766E-3,-6.5947E-3],"categories":[],"categories_nodes":[],"categories_segments":[],"categories_sizes":[],"default_left":[0,0,0,0,0,0,0,0,0,0,0,0,0,0,0,0,0],"id":69,"left_children":[1,3,5,7,-1,-1,9,-1,11,13,-1,-1,-1,-1,15,-1,-1],"loss_changes":[7.0491666E-1,8.054735E-1,8.730997E-1,1.2266246E0,0E0,0E0,5.713945E-1,0E0,4.5739442E-1,1.9241884E-1,0E0,0E0,0E0,0E0,2.9398054E-1,0E0,0E0],"parents":[2147483647,0,0,1,1,2,2,3,3,6,6,8,8,9,9,14,14],"right_children":[2,4,6,8,-1,-1,10,-1,12,14,-1,-1,-1,-1,16,-1,-1],"split_conditions":[6.27E1,8.358209E-1,6.59E1,5.26E1,1.9255355E-2,-1.803316E-2,5.5E0,-1.1490578E-2,3.5E0,2.385E1,8.7459525E-3,1.55261895E-2,5.514875E-4,-9.519767E-3,2.54E1,5.865766E-3,-6.5947E-3],"split_indices":[12,15,12,12,0,0,3,0,10,1,0,0,0,0,1,0,0],"split_type":[0,0,0,0,0,0,0,0,0,0,0,0,0,0,0,0,0],"sum_hessian":[8.3E1,3.8E1,4.5E1,3E1,8E0,7E0,3.8E1,1E1,2E1,2.6E1,1.2E1,1.1E1,9E0,9E0,1.7E1,8E0,9E0],"tree_param":{"num_deleted":"0","num_feature":"16","num_nodes":"17","size_leaf_vector":"1"}},{"base_weights":[1.2813076E-2,-1.3053204E-1,8.04886E-2,1.5179574E-4,-1.9748467E-1,-1.0263954E-2,3.136835E-1,-2.4742929E-3,-1.8814875E-2,8.6288475E-2,-1.0476614E-2,2.389065E-2,6.646847E-3,-6.6051446E-2,1.3943232E-2,-7.2814384E-3,2.0838317E-3],"categories":[],"categories_nodes":[],"categories_segments":[],"categories_sizes":[],"default_left":[0,0,0,0,0,0,0,0,0,0,0,0,0,0,0,0,0],"id":70,"left_children":[1,3,5,-1,7,9,11,-1,-1,13,-1,-1,-1,15,-1,-1,-1],"loss_changes":[8.156857E-1,2.4205315E-1,1.2095127E0,0E0,4.5773214E-1,8.261535E-1,4.1113448E-1,0E0,0E0,8.6919343E-1,0E0,0E0,0E0,1.518054E-1,0E0,0E0,0E0],"parents":[2147483647,0,0,1,1,2,2,4,4,5,5,6,6,9,9,13,13],"right_children":[2,4,6,-1,8,10,12,-1,-1,14,-1,-1,-1,16,-1,-1,-1],"split_conditions":[5.4854933E-2,4.8E0,6.9716775E-1,1.5179574E-4,1.65E1,1.59E1,5.79E1,-2.4742929E-3,-1.8814875E-2,1.592E1,-1.0476614E-2,2.389065E-2,6.646847E-3,1.0631564E-1,1.3943232E-2,-7.2814384E-3,2.0838317E-3],"split_indices":[13,11,15,0,5,5,12,0,0,14,0,0,0,13,0,0,0],"split_type":[0,0,0,0,0,0,0,0,0,0,0,0,0,0,0,0,0],"sum_hessian":[8.2E1,2.6E1,5.6E1,9E0,1.7E1,4.1E1,1.5E1,1E1,7E0,2.8E1,1.3E1,7E0,8E0,1.6E1,1.2E1,9E0,7E0],"tree_param":{"num_deleted":"0","num_feature":"16","num_nodes":"17","size_leaf_vector":"1"}},{"base_weights":[-3.1596702E-3,-4.7147438E-2,1.0681927E-2,7.0459984E-2,-1.2434348E-1,-5.035271E-2,1.7429132E-2,-2.815593E-2,-2.002359E-2,-5.458377E-3,2.2081805E-3,-9.266053E-2,4.5842393E-3,4.3056863E-3,-1.0950976E-2],"categories":[],"categories_nodes":[],"categories_segments":[],"categories_sizes":[],"default_left":[0,0,0,0,0,0,0,0,0,0,0,0,0,0,0],"id":71,"left_children":[1,3,-1,5,7,9,-1,11,-1,-1,-1,13,-1,-1,-1],"loss_changes":[7.3484415E-1,5.898062E-1,0E0,8.911716E-1,1.0245683E0,1.10441476E-1,0E0,2.4040389E-1,0E0,0E0,0E0,4.706552E-1,0E0,0E0,0E0],"parents":[2147483647,0,0,1,1,3,3,4,4,5,5,7,7,11,11],"right_children":[2,4,-1,6,8,10,-1,12,-1,-1,-1,14,-1,-1,-1],"split_conditions":[5.2E0,1.585E1,1.0681927E-2,2.095E1,5.4E0,2.04E1,1.7429132E-2,8.2E0,-2.002359E-2,-5.458377E-3,2.2081805E-3,2.9E0,4.5842393E-3,4.3056863E-3,-1.0950976E-2],"split_indices":[10,5,0,2,3,2,0,4,0,0,0,10,0,0,0],"split_type":[0,0,0,0,0,0,0,0,0,0,0,0,0,0,0],"sum_hessian":[7.5E1,6.3E1,1.2E1,2.5E1,3.8E1,1.8E1,7E0,2.9E1,9E0,1.1E1,7E0,1.9E1,1E1,8E0,1.1E1],"tree_param":{"num_deleted":"0","num_feature":"16","num_nodes":"15","size_leaf_vector":"1"}},{"base_weights":[1.2292209E-2,1.4204927E-1,-9.798644E-2,1.2430655E-2,1.8631158E-2,-1.132792E-2,-2.4514931E-1,-9.688378E-2,1.1483917E-2,-7.422704E-2,8.546153E-3,-1.928374E-2,-5.4107006E-3,7.1454234E-4,-8.446522E-3,6.536914E-4,-1.2165909E-1,-3.932636E-3,-7.472904E-3],"categories":[],"categories_nodes":[],"categories_segments":[],"categories_sizes":[],"default_left":[0,0,0,0,0,0,0,0,0,0,0,0,0,0,0,0,0,0,0],"id":72,"left_children":[1,3,5,7,-1,9,11,13,-1,15,-1,-1,-1,-1,-1,-1,17,-1,-1],"loss_changes":[1.2159114E0,1.1609483E0,5.8385706E-1,6.397081E-1,0E0,3.5658988E-1,2.8539395E-1,1.4658985E-1,0E0,9.683031E-2,0E0,0E0,0E0,0E0,0E0,0E0,6.1777085E-3,0E0,0E0],"parents":[2147483647,0,0,1,1,2,2,3,3,5,5,6,6,7,7,9,9,16,16],"right_children":[2,4,6,8,-1,10,12,14,-1,16,-1,-1,-1,-1,-1,-1,18,-1,-1],"split_conditions":[6.27E1,1.75E1,4E0,3.1111112E-1,1.8631158E-2,1.638E1,4.8E0,6.680498E-1,1.1483917E-2,8.14E1,8.546153E-3,-1.928374E-2,-5.4107006E-3,7.1454234E-4,-8.446522E-3,6.536914E-4,2.93E1,-3.932636E-3,-7.472904E-3],"split_indices":[12,7,10,0,0,14,10,15,0,12,0,0,0,0,0,0,7,0,0],"split_type":[0,0,0,0,0,0,0,0,0,0,0,0,0,0,0,0,0,0,0],"sum_hessian":[8.3E1,3.8E1,4.5E1,2.5E1,1.3E1,2.9E1,1.6E1,1.7E1,8E0,2.2E1,7E0,7E0,9E0,7E0,1E1,8E0,1.4E1,7E0,7E0],"tree_param":{"num_deleted":"0","num_feature":"16","num_nodes":"19","size_leaf_vector":"1"}},{"base_weights":[-1.2525525E-2,1.3089806E-1,-9.052883E-2,-9.747474E-2,3.3681643E-1,-1.3408165E-1,7.3486194E-3,-1.5088578E-2,5.9503205E-3,7.211204E-3,2.3529278E-2,-7.47544E-2,-1.6072383E-2,-7.6547735E-3,-9.222138E-3,-4.7256142E-2,3.872749E-3,2.80925E-3,-7.27233E-3],"categories":[],"categories_nodes":[],"categories_segments":[],"categories_sizes":[],"default_left":[0,0,0,0,0,0,0,0,0,0,0,0,0,0,0,0,0,0,0],"id":73,"left_children":[1,3,5,7,9,11,-1,-1,-1,-1,-1,13,-1,15,-1,17,-1,-1,-1],"loss_changes":[9.516012E-1,1.4436156E0,5.886178E-1,6.993089E-1,3.4433675E-1,4.9841815E-1,0E0,0E0,0E0,0E0,0E0,2.7090985E-1,0E0,8.455132E-2,0E0,1.8083978E-1,0E0,0E0,0E0],"parents":[2147483647,0,0,1,1,2,2,3,3,4,4,5,5,11,11,13,13,15,15],"right_children":[2,4,6,8,10,12,-1,-1,-1,-1,-1,14,-1,16,-1,18,-1,-1,-1],"split_conditions":[5.9E1,5.5104967E-2,6E0,4.91E1,2.11E1,8.7416686E-2,7.3486194E-3,-1.5088578E-2,5.9503205E-3,7.211204E-3,2.3529278E-2,3.9E0,-1.6072383E-2,3.4E0,-9.222138E-3,1.22E1,3.872749E-3,2.80925E-3,-7.27233E-3],"split_indices":[12,13,8,12,2,13,0,0,0,0,0,10,0,8,0,7,0,0,0],"split_type":[0,0,0,0,0,0,0,0,0,0,0,0,0,0,0,0,0,0,0],"sum_hessian":[8.3E1,2.9E1,5.4E1,1.4E1,1.5E1,4.6E1,8E0,7E0,7E0,7E0,8E0,3.6E1,1E1,2.3E1,1.3E1,1.6E1,7E0,8E0,8E0],"tree_param":{"num_deleted":"0","num_feature":"16","num_nodes":"19","size_leaf_vector":"1"}},{"base_weights":[1.7366616E-2,-5.3816147E-2,1.324959E-1,-1.3173326E-2,-1.5349058E-2,2.7272565E-2,-2.7883047E-2,-9.7006835E-2,9.655838E-3,4.2393595E-2,-8.686776E-3,-2.2895643E-2,-1.8441388E-1,9.173781E-3,-5.1699416E-3,1.7973963E-3,-3.972483E-3,-4.4895937E-3,-1.2799208E-2],"categories":[],"categories_nodes":[],"categories_segments":[],"categories_sizes":[],"default_left":[0,0,0,0,0,0,0,0,0,0,0,0,0,0,0,0,0,0,0],"id":74,"left_children":[1,3,5,-1,7,-1,9,11,-1,13,-1,15,17,-1,-1,-1,-1,-1,-1],"loss_changes":[6.873337E-1,4.153172E-1,2.1345482E0,0E0,7.847621E-1,0E0,2.533658E-1,2.095465E-1,0E0,3.6863887E-1,0E0,6.6084996E-2,7.859653E-2,0E0,0E0,0E0,0E0,0E0,0E0],"parents":[2147483647,0,0,1,1,2,2,4,4,6,6,7,7,9,9,11,11,12,12],"right_children":[2,4,6,-1,8,-1,10,12,-1,14,-1,16,18,-1,-1,-1,-1,-1,-1],"split_conditions":[7.4786395E-2,2.1E0,3.9E0,-1.3173326E-2,1.645E1,2.7272565E-2,8.5E0,1.58E1,9.655838E-3,1.208788E-1,-8.686776E-3,2.47E1,1.594E1,9.173781E-3,-5.1699416E-3,1.7973963E-3,-3.972483E-3,-4.4895937E-3,-1.2799208E-2],"split_indices":[13,8,8,0,5,0,4,7,0,13,0,1,14,0,0,0,0,0,0],"split_type":[0,0,0,0,0,0,0,0,0,0,0,0,0,0,0,0,0,0,0],"sum_hessian":[8.2E1,5.1E1,3.1E1,7E0,4.4E1,8E0,2.3E1,3.2E1,1.2E1,1.6E1,7E0,1.8E1,1.4E1,8E0,8E0,9E0,9E0,7E0,7E0],"tree_param":{"num_deleted":"0","num_feature":"16","num_nodes":"19","size_leaf_vector":"1"}},{"base_weights":[7.3659434E-3,-9.913488E-2,2.0779572E-1,-2.3304036E-2,-1.7948871E-2,2.7021334E-2,-9.281846E-5,9.0560764E-2,-9.0690754E-2,-6.381622E-3,7.967166E-3,-2.5236877E-3,1.101376E-2,-1.375441E-1,-9.277615E-4,-2.76632E-3,-1.01284385E-2],"categories":[],"categories_nodes":[],"categories_segments":[],"categories_sizes":[],"default_left":[0,0,0,0,0,0,0,0,0,0,0,0,0,0,0,0,0],"id":75,"left_children":[1,3,5,7,-1,-1,9,11,13,-1,-1,-1,-1,15,-1,-1,-1],"loss_changes":[1.6001991E0,9.5713425E-1,1.7979546E0,3.074591E-1,0E0,0E0,3.6602253E-1,2.8553128E-1,8.194257E-2,0E0,0E0,0E0,0E0,6.898528E-2,0E0,0E0,0E0],"parents":[2147483647,0,0,1,1,2,2,3,3,6,6,7,7,8,8,13,13],"right_children":[2,4,6,8,-1,-1,10,12,14,-1,-1,-1,-1,16,-1,-1,-1],"split_conditions":[1.62E1,2.145E1,5.7E1,2.46E1,-1.7948871E-2,2.7021334E-2,2.18E1,5.3717595E-2,1.1489626E-1,-6.381622E-3,7.967166E-3,-2.5236877E-3,1.101376E-2,7.574463E-2,-9.277615E-4,-2.76632E-3,-1.01284385E-2],"split_indices":[5,2,12,1,0,0,2,13,13,0,0,0,0,13,0,0,0],"split_type":[0,0,0,0,0,0,0,0,0,0,0,0,0,0,0,0,0],"sum_hessian":[7.3E1,4.8E1,2.5E1,3.8E1,1E1,9E0,1.6E1,1.4E1,2.4E1,9E0,7E0,7E0,7E0,1.4E1,1E1,7E0,7E0],"tree_param":{"num_deleted":"0","num_feature":"16","num_nodes":"17","size_leaf_vector":"1"}},{"base_weights":[-1.8148458E-2,-1.9109243E-1,6.864761E-2,-8.185251E-2,-2.2698034E-2,-7.114187E-2,2.4483223E-1,7.337729E-4,-8.546967E-3,2.0563472E-3,-1.3190776E-1,3.3203036E-1,9.0162066E-4,-1.0509426E-3,-1.1540253E-2,4.433488E-3,2.3941766E-2],"categories":[],"categories_nodes":[],"categories_segments":[],"categories_sizes":[],"default_left":[0,0,0,0,0,0,0,0,0,0,0,0,0,0,0,0,0],"id":76,"left_children":[1,3,5,7,-1,9,11,-1,-1,-1,13,15,-1,-1,-1,-1,-1],"loss_changes":[1.2590191E0,7.6688194E-1,1.3966281E0,1.830954E-1,0E0,2.2373267E-1,4.8842573E-1,0E0,0E0,0E0,2.2544757E-1,6.006197E-1,0E0,0E0,0E0,0E0,0E0],"parents":[2147483647,0,0,1,1,2,2,3,3,5,5,6,6,10,10,11,11],"right_children":[2,4,6,8,-1,10,12,-1,-1,-1,14,16,-1,-1,-1,-1,-1],"split_conditions":[5.5104967E-2,7.595238E-1,6.48E-1,4.85E0,-2.2698034E-2,5.875486E-1,2.6E1,7.337729E-4,-8.546967E-3,2.0563472E-3,1.588E1,2.13E1,9.0162066E-4,-1.0509426E-3,-1.1540253E-2,4.433488E-3,2.3941766E-2],"split_indices":[13,15,15,3,0,15,7,0,0,0,14,2,0,0,0,0,0],"split_type":[0,0,0,0,0,0,0,0,0,0,0,0,0,0,0,0,0],"sum_hessian":[8.2E1,2.7E1,5.5E1,2E1,7E0,3.1E1,2.4E1,1E1,1E1,1.1E1,2E1,1.7E1,7E0,1E1,1E1,7E0,1E1],"tree_param":{"num_deleted":"0","num_feature":"16","num_nodes":"17","size_leaf_vector":"1"}},{"base_weights":[6.415447E-3,-8.429232E-2,1.1342113E-1,-1.14295796E-1,2.3129054E-3,1.8216303E-2,-6.788335E-2,-1.2764659E-2,-2.2851343E-1,2.2797058E-3,-1.2189941E-2,-3.446972E-3,3.303562E-3,-1.5502271E-2,-5.920864E-3],"categories":[],"categories_nodes":[],"categories_segments":[],"categories_sizes":[],"default_left":[0,0,0,0,0,0,0,0,0,0,0,0,0,0,0],"id":77,"left_children":[1,3,5,7,-1,-1,9,11,13,-1,-1,-1,-1,-1,-1],"loss_changes":[6.9870406E-1,1.5804878E-1,1.5259075E0,3.6817577E-1,0E0,0E0,4.1036463E-1,8.426952E-2,9.793061E-2,0E0,0E0,0E0,0E0,0E0,0E0],"parents":[2147483647,0,0,1,1,2,2,3,3,6,6,7,7,8,8],"right_children":[2,4,6,8,-1,-1,10,12,14,-1,-1,-1,-1,-1,-1],"split_conditions":[7.185952E-2,8.7E0,9.252204E-2,8.2E0,2.3129054E-3,1.8216303E-2,1.596E1,1.579E1,2.35E1,2.2797058E-3,-1.2189941E-2,-3.446972E-3,3.303562E-3,-1.5502271E-2,-5.920864E-3],"split_indices":[13,4,13,4,0,0,14,14,1,0,0,0,0,0,0],"split_type":[0,0,0,0,0,0,0,0,0,0,0,0,0,0,0],"sum_hessian":[7E1,3.8E1,3.2E1,3.1E1,7E0,1.3E1,1.9E1,1.7E1,1.4E1,1.2E1,7E0,1E1,7E0,7E0,7E0],"tree_param":{"num_deleted":"0","num_feature":"16","num_nodes":"15","size_leaf_vector":"1"}},{"base_weights":[1.3709873E-2,-5.666905E-2,1.1989196E-1,-4.8270524E-3,-1.7383846E-2,2.0660639E-1,-5.8777384E-3,-5.7144787E-2,6.618763E-3,3.5827678E-2,2.9319001E-2,-1.1583895E-2,-3.3147975E-3,-7.7404664E-3,7.996669E-3,2.6698387E-3,-2.98948E-3],"categories":[],"categories_nodes":[],"categories_segments":[],"categories_sizes":[],"default_left":[0,0,0,0,0,0,0,0,0,0,0,0,0,0,0,0,0],"id":78,"left_children":[1,3,5,7,-1,9,-1,11,-1,13,-1,-1,15,-1,-1,-1,-1],"loss_changes":[6.5694344E-1,7.979024E-1,7.449396E-1,3.3775783E-1,0E0,1.66528E0,0E0,3.18666E-1,0E0,4.7428277E-1,0E0,0E0,8.966749E-2,0E0,0E0,0E0,0E0],"parents":[2147483647,0,0,1,1,2,2,3,3,5,5,7,7,9,9,12,12],"right_children":[2,4,6,8,-1,10,-1,12,-1,14,-1,-1,16,-1,-1,-1,-1],"split_conditions":[8.4E0,1.655E1,9.252204E-2,1.62E1,-1.7383846E-2,3.6E0,-5.8777384E-3,5.57E1,6.618763E-3,6.652174E-1,2.9319001E-2,-1.1583895E-2,8.05E0,-7.7404664E-3,7.996669E-3,2.6698387E-3,-2.98948E-3],"split_indices":[4,5,13,5,0,8,0,12,0,15,0,0,4,0,0,0,0],"split_type":[0,0,0,0,0,0,0,0,0,0,0,0,0,0,0,0,0],"sum_hessian":[8.6E1,5.2E1,3.4E1,4.5E1,7E0,2.5E1,9E0,3.3E1,1.2E1,1.8E1,7E0,7E0,2.6E1,7E0,1.1E1,1.3E1,1.3E1],"tree_param":{"num_deleted":"0","num_feature":"16","num_nodes":"17","size_leaf_vector":"1"}},{"base_weights":[2.5934292E-2,-2.4362378E-2,1.6039211E-2,-9.476447E-2,7.20534E-2,-1.7934812E-2,-1.7016698E-2,-9.2828885E-2,2.4793137E-2,-1.04320936E-1,8.263476E-3,3.043958E-3,-8.701571E-3,-1.9912971E-3,-7.966611E-3],"categories":[],"categories_nodes":[],"categories_segments":[],"categories_sizes":[],"default_left":[0,0,0,0,0,0,0,0,0,0,0,0,0,0,0],"id":79,"left_children":[1,3,-1,5,7,9,-1,11,-1,13,-1,-1,-1,-1,-1],"loss_changes":[1.1200626E0,4.4803983E-1,0E0,7.1084285E-1,2.0026326E0,4.920304E-1,0E0,2.7270597E-1,0E0,6.816144E-2,0E0,0E0,0E0,0E0,0E0],"parents":[2147483647,0,0,1,1,3,3,4,4,5,5,7,7,9,9],"right_children":[2,4,-1,6,8,10,-1,12,-1,14,-1,-1,-1,-1,-1],"split_conditions":[4.9E0,7.1014464E-2,1.6039211E-2,1.4E1,1.652E1,3.8E0,-1.7016698E-2,8.7416686E-2,2.4793137E-2,2.11E1,8.263476E-3,3.043958E-3,-8.701571E-3,-1.9912971E-3,-7.966611E-3],"split_indices":[10,13,0,6,14,10,0,13,0,2,0,0,0,0,0],"split_type":[0,0,0,0,0,0,0,0,0,0,0,0,0,0,0],"sum_hessian":[7.4E1,6.4E1,1E1,3.7E1,2.7E1,2.9E1,8E0,2E1,7E0,2E1,9E0,7E0,1.3E1,1E1,1E1],"tree_param":{"num_deleted":"0","num_feature":"16","num_nodes":"15","size_leaf_vector":"1"}},{"base_weights":[1.6219763E-2,-1.9615097E-2,1.6387366E-2,-1.7769134E-1,4.7169227E-2,-1.6869059E-2,-3.687389E-3,-3.5961416E-2,2.4405016E-2,1.1390994E-2,-1.0805699E-2,-5.694168E-2,1.0756168E-2,-6.505092E-3,1.0142874E-3],"categories":[],"categories_nodes":[],"categories_segments":[],"categories_sizes":[],"default_left":[0,0,0,0,0,0,0,0,0,0,0,0,0,0,0],"id":80,"left_children":[1,3,-1,5,7,-1,-1,9,-1,11,-1,13,-1,-1,-1],"loss_changes":[8.6602193E-1,7.473727E-1,0E0,3.236922E-1,1.850297E0,0E0,0E0,3.6928004E-1,0E0,4.9950466E-1,0E0,1.5518844E-1,0E0,0E0,0E0],"parents":[2147483647,0,0,1,1,3,3,4,4,7,7,9,9,11,11],"right_children":[2,4,-1,6,8,-1,-1,10,-1,12,-1,14,-1,-1,-1],"split_conditions":[8.707124E-1,5.5104967E-2,1.6387366E-2,2.29E1,1.645E1,-1.6869059E-2,-3.687389E-3,4.2E0,2.4405016E-2,2.13E1,-1.0805699E-2,4.1E0,1.0756168E-2,-6.505092E-3,1.0142874E-3],"split_indices":[15,13,0,1,5,0,0,10,0,2,0,8,0,0,0],"split_type":[0,0,0,0,0,0,0,0,0,0,0,0,0,0,0],"sum_hessian":[7.6E1,6.9E1,7E0,2E1,4.9E1,7E0,1.3E1,4.2E1,7E0,3.4E1,8E0,2.6E1,8E0,1.3E1,1.3E1],"tree_param":{"num_deleted":"0","num_feature":"16","num_nodes":"15","size_leaf_vector":"1"}},{"base_weights":[-8.247385E-3,-7.9888485E-2,1.6471742E-1,-1.5273168E-2,-1.5164672E-1,-2.2918542E-3,1.5700592E-2,-7.102619E-2,6.9978395E-3,1.7158579E-3,-2.258725E-1,-5.3577344E-3,-3.4672586E-4,-1.6627839E-2,-6.3875043E-3],"categories":[],"categories_nodes":[],"categories_segments":[],"categories_sizes":[],"default_left":[0,0,0,0,0,0,0,0,0,0,0,0,0,0,0],"id":81,"left_children":[1,3,5,7,9,-1,-1,11,-1,-1,13,-1,-1,-1,-1],"loss_changes":[9.301218E-1,2.4342799E-1,7.05955E-1,2.6092222E-1,3.5283422E-1,0E0,0E0,5.0198726E-2,0E0,0E0,1.4594197E-1,0E0,0E0,0E0,0E0],"parents":[2147483647,0,0,1,1,2,2,3,3,4,4,7,7,10,10],"right_children":[2,4,6,8,10,-1,-1,12,-1,-1,14,-1,-1,-1,-1],"split_conditions":[2.888889E-1,1.607E1,5.0868027E-2,1.595E1,1.53E1,-2.2918542E-3,1.5700592E-2,1.0631564E-1,6.9978395E-3,1.7158579E-3,4.1E0,-5.3577344E-3,-3.4672586E-4,-1.6627839E-2,-6.3875043E-3],"split_indices":[0,14,13,5,7,0,0,13,0,0,8,0,0,0,0],"split_type":[0,0,0,0,0,0,0,0,0,0,0,0,0,0,0],"sum_hessian":[7.3E1,5.2E1,2.1E1,2.8E1,2.4E1,9E0,1.2E1,2.1E1,7E0,7E0,1.7E1,1.3E1,8E0,7E0,1E1],"tree_param":{"num_deleted":"0","num_feature":"16","num_nodes":"15","size_leaf_vector":"1"}},{"base_weights":[5.634335E-2,4.793395E-3,2.1151882E-2,-7.017625E-2,1.0656038E-1,7.659301E-3,-1.4361858E-2,-6.2157214E-2,2.0670457E-2,-5.8592227E-3,9.301068E-2,7.5676567E-3,-1.1337488E-2,4.8783954E-4,8.752248E-3],"categories":[],"categories_nodes":[],"categories_segments":[],"categories_sizes":[],"default_left":[0,0,0,0,0,0,0,0,0,0,0,0,0,0,0],"id":82,"left_children":[1,3,-1,5,7,9,-1,11,-1,-1,13,-1,-1,-1,-1],"loss_changes":[1.226672E0,4.499852E-1,0E0,5.7663196E-1,1.3199658E0,2.8794464E-1,0E0,6.317369E-1,0E0,0E0,1.0756689E-1,0E0,0E0,0E0,0E0],"parents":[2147483647,0,0,1,1,3,3,4,4,5,5,7,7,10,10],"right_children":[2,4,-1,6,8,10,-1,12,-1,-1,14,-1,-1,-1,-1],"split_conditions":[6.3E0,6.787234E-1,2.1151882E-2,5.4E0,8.35E0,6.76E1,-1.4361858E-2,2.2222222E-1,2.0670457E-2,-5.8592227E-3,5.4E0,7.5676567E-3,-1.1337488E-2,4.8783954E-4,8.752248E-3],"split_indices":[3,15,0,3,4,12,0,0,0,0,11,0,0,0,0],"split_type":[0,0,0,0,0,0,0,0,0,0,0,0,0,0,0],"sum_hessian":[6.4E1,5.7E1,7E0,3.3E1,2.4E1,2.5E1,8E0,1.6E1,8E0,1E1,1.5E1,7E0,9E0,8E0,7E0],"tree_param":{"num_deleted":"0","num_feature":"16","num_nodes":"15","size_leaf_vector":"1"}},{"base_weights":[1.714153E-2,5.557804E-2,-1.5345347E-2,-3.5407837E-2,2.0985062E-1,2.2044983E-2,-1.4412276E-1,6.68502E-2,2.0883312E-2,-6.1918903E-2,8.253471E-3,-9.107557E-3,-4.403952E-3,-7.1980096E-3,1.4782781E-2,1.1408216E-3,-7.023117E-3],"categories":[],"categories_nodes":[],"categories_segments":[],"categories_sizes":[],"default_left":[0,0,0,0,0,0,0,0,0,0,0,0,0,0,0,0,0],"id":83,"left_children":[1,3,-1,5,7,9,11,13,-1,15,-1,-1,-1,-1,-1,-1,-1],"loss_changes":[9.387489E-1,9.478843E-1,0E0,2.717543E-1,7.1502197E-1,3.5847867E-1,1.592505E-2,8.1431556E-1,0E0,1.2965755E-1,0E0,0E0,0E0,0E0,0E0,0E0,0E0],"parents":[2147483647,0,0,1,1,3,3,4,4,5,5,6,6,7,7,9,9],"right_children":[2,4,-1,6,8,10,12,14,-1,16,-1,-1,-1,-1,-1,-1,-1],"split_conditions":[1.4E1,1.3E1,-1.5345347E-2,1.28E1,1.615E1,2.54E1,7.1555555E-1,8.55E0,2.0883312E-2,1.92E1,8.253471E-3,-9.107557E-3,-4.403952E-3,-7.1980096E-3,1.4782781E-2,1.1408216E-3,-7.023117E-3],"split_indices":[6,6,0,6,5,7,15,4,0,7,0,0,0,0,0,0,0],"split_type":[0,0,0,0,0,0,0,0,0,0,0,0,0,0,0,0,0],"sum_hessian":[7.3E1,6.6E1,7E0,4.2E1,2.4E1,2.8E1,1.4E1,1.5E1,9E0,1.8E1,1E1,7E0,7E0,8E0,7E0,9E0,9E0],"tree_param":{"num_deleted":"0","num_feature":"16","num_nodes":"17","size_leaf_vector":"1"}},{"base_weights":[-5.760567E-2,-8.686158E-3,-1.4135993E-2,-1.1116543E-1,6.079135E-2,-5.2429028E-2,-9.701355E-3,-1.4192993E-2,1.3233419E-2,4.1460004E-4,-5.028892E-3,8.148244E-3,-1.7859413E-1,-3.733238E-3,-1.3009963E-2],"categories":[],"categories_nodes":[],"categories_segments":[],"categories_sizes":[],"default_left":[0,0,0,0,0,0,0,0,0,0,0,0,0,0,0],"id":84,"left_children":[1,3,-1,5,7,9,-1,11,-1,-1,-1,-1,13,-1,-1],"loss_changes":[8.01455E-1,4.4107816E-1,0E0,1.1150226E-1,5.6939703E-1,4.761231E-2,0E0,8.4460336E-1,0E0,0E0,0E0,0E0,1.07789814E-1,0E0,0E0],"parents":[2147483647,0,0,1,1,3,3,4,4,5,5,7,7,12,12],"right_children":[2,4,-1,6,8,10,-1,12,-1,-1,-1,-1,14,-1,-1],"split_conditions":[8.8E0,6.48E-1,-1.4135993E-2,1.578E1,8.4E0,8.14E1,-9.701355E-3,6.27E1,1.3233419E-2,4.1460004E-4,-5.028892E-3,8.148244E-3,1.64E1,-3.733238E-3,-1.3009963E-2],"split_indices":[4,15,0,14,4,12,0,12,0,0,0,0,5,0,0],"split_type":[0,0,0,0,0,0,0,0,0,0,0,0,0,0,0],"sum_hessian":[7.2E1,6E1,1.2E1,2.4E1,3.6E1,1.5E1,9E0,2.7E1,9E0,7E0,8E0,1.3E1,1.4E1,7E0,7E0],"tree_param":{"num_deleted":"0","num_feature":"16","num_nodes":"15","size_leaf_vector":"1"}},{"base_weights":[4.4287154E-3,-1.0437161E-1,5.874371E-2,-3.165077E-2,-1.3201857E-2,-2.173291E-3,1.7501654E-2,-6.063441E-3,1.5366077E-3,1.06871724E-1,-1.383709E-1,-7.796163E-2,2.546939E-2,-1.0633244E-2,-1.7341226E-5,2.5237144E-3,-1.2240792E-2],"categories":[],"categories_nodes":[],"categories_segments":[],"categories_sizes":[],"default_left":[0,0,0,0,0,0,0,0,0,0,0,0,0,0,0,0,0],"id":85,"left_children":[1,3,5,7,-1,9,-1,-1,-1,11,13,15,-1,-1,-1,-1,-1],"loss_changes":[4.6116185E-1,2.935293E-1,9.234733E-1,1.0994893E-1,0E0,6.6826135E-1,0E0,0E0,0E0,1.8996727E0,2.0501333E-1,3.9809814E-1,0E0,0E0,0E0,0E0,0E0],"parents":[2147483647,0,0,1,1,2,2,3,3,5,5,9,9,10,10,11,11],"right_children":[2,4,6,8,-1,10,-1,-1,-1,12,14,16,-1,-1,-1,-1,-1],"split_conditions":[5.4854933E-2,1.675E1,1.645E1,2E-1,-1.3201857E-2,8.2995445E-2,1.7501654E-2,-6.063441E-3,1.5366077E-3,7.4786395E-2,1.2762429E-1,1.595E1,2.546939E-2,-1.0633244E-2,-1.7341226E-5,2.5237144E-3,-1.2240792E-2],"split_indices":[13,5,5,0,0,13,0,0,0,13,13,5,0,0,0,0,0],"split_type":[0,0,0,0,0,0,0,0,0,0,0,0,0,0,0,0,0],"sum_hessian":[7.6E1,2.5E1,5.1E1,1.8E1,7E0,4.3E1,8E0,7E0,1.1E1,2.4E1,1.9E1,1.7E1,7E0,1.2E1,7E0,1E1,7E0],"tree_param":{"num_deleted":"0","num_feature":"16","num_nodes":"17","size_leaf_vector":"1"}},{"base_weights":[-3.0146161E-2,-1.3109247E-1,3.4929063E-2,-3.6887035E-2,-1.5790733E-2,1.5526523E-2,-7.9581186E-2,-4.964554E-3,9.09513E-4,4.290689E-3,-1.7420521E-1,-3.875081E-3,5.189116E-3,7.148758E-5,-1.5548452E-2],"categories":[],"categories_nodes":[],"categories_segments":[],"categories_sizes":[],"default_left":[0,0,0,0,0,0,0,0,0,0,0,0,0,0,0],"id":86,"left_children":[1,3,5,7,-1,-1,9,-1,-1,11,13,-1,-1,-1,-1],"loss_changes":[5.0383085E-1,5.104056E-1,1.5079939E0,7.39841E-2,0E0,0E0,2.7058148E-1,0E0,0E0,1.6265863E-1,3.8477272E-1,0E0,0E0,0E0,0E0],"parents":[2147483647,0,0,1,1,2,2,3,3,6,6,9,9,10,10],"right_children":[2,4,6,8,-1,-1,10,-1,-1,12,14,-1,-1,-1,-1],"split_conditions":[1.75E1,4E0,2.19E1,8.25E0,-1.5790733E-2,1.5526523E-2,3.6E0,-4.964554E-3,9.09513E-4,2.04E1,2.29E1,-3.875081E-3,5.189116E-3,7.148758E-5,-1.5548452E-2],"split_indices":[7,10,7,4,0,0,10,0,0,2,1,0,0,0,0],"split_type":[0,0,0,0,0,0,0,0,0,0,0,0,0,0,0],"sum_hessian":[7.5E1,2.9E1,4.6E1,2E1,9E0,1.3E1,3.3E1,9E0,1.1E1,1.8E1,1.5E1,1E1,8E0,7E0,8E0],"tree_param":{"num_deleted":"0","num_feature":"16","num_nodes":"15","size_leaf_vector":"1"}},{"base_weights":[1.11583695E-2,-2.9721143E-2,1.571219E-2,-9.168294E-2,8.511387E-2,-4.0062323E-2,-1.7951512E-1,-5.4653116E-2,1.8573975E-2,-8.726364E-2,3.726272E-3,-1.8323353E-3,-1.5890134E-2,-8.603262E-3,2.2370946E-3,-5.517962E-4,-7.7779144E-3],"categories":[],"categories_nodes":[],"categories_segments":[],"categories_sizes":[],"default_left":[0,0,0,0,0,0,0,0,0,0,0,0,0,0,0,0,0],"id":87,"left_children":[1,3,-1,5,7,9,11,13,-1,15,-1,-1,-1,-1,-1,-1,-1],"loss_changes":[9.3858856E-1,4.845342E-1,0E0,1.9230211E-1,9.808895E-1,1.6335547E-1,3.044644E-1,2.0609154E-1,0E0,1.07608125E-1,0E0,0E0,0E0,0E0,0E0,0E0,0E0],"parents":[2147483647,0,0,1,1,3,3,4,4,5,5,6,6,7,7,9,9],"right_children":[2,4,-1,6,8,10,12,14,-1,16,-1,-1,-1,-1,-1,-1,-1],"split_conditions":[1.738E1,1.615E1,1.571219E-2,8.5E0,5.1E0,8.250653E-2,3.8E0,4.65E0,1.8573975E-2,3.2E0,3.726272E-3,